tree
version=v3
num_class=1
num_tree_per_iteration=1
label_index=0
max_feature_idx=3
objective=regression
feature_names=OPEN_TIME OPEN_BTC HIGH_LTCUSDT VOLABILITY_BTC_23
feature_infos=[1656900000000:1660453200000] [19072.490000000002:24862.02] [46.990000000000002:65.659999999999997] [0.33983953253561727:1.6350255927601713]
tree_sizes=1035 1097 1442 1353 1438 1270 1175 1178 1182 1362 1094 1098 977 1079 1085 1089 982 776 872 778 774 879 881 1085 1096 774 667 883 1194 875 669 989 877 1209 773 876 774 882 1199 879 774 669 985 1198 1085 988 880 671 674 776 1195 669 776 984 781 986 985 772 880 885 881 669 774 772 781 885 1089 673 1189 990 877 771 668 880 998 988 883 673 1093 1211 889 665 996 993 783 1097 774 885 881 989 995 1093 873 784 781 673 994 674 881 677

Tree=0
num_leaves=11
num_cat=0
split_feature=1 3 0 0 0 3 0 3 2 0
split_gain=0.262665 0.192057 0.179634 0.125745 0.300179 0.154044 0.1008 0.0372738 0.0368388 0.0263152
threshold=23289.235000000004 0.59815568972586275 1659331800000.0002 1657215000000.0002 1657647000000.0002 0.75858844595881703 1660249800000.0002 1.1489736907106785 62.455000000000005 1659951000000.0002
decision_type=2 2 2 2 2 2 2 2 2 2
left_child=1 2 -1 5 -5 -3 7 9 -8 -2
right_child=6 3 -4 4 -6 -7 8 -9 -10 -11
leaf_value=0.43625302269378086 0.42262109123790909 0.43497699577883187 0.42733878491137189 0.42192238398111437 0.42647828323133985 0.42698999018127615 0.42898444890126208 0.42488385098537629 0.42480676997815159 0.42015760290186621
leaf_weight=23 134 20 39 116 458 68 22 38 35 35
leaf_count=23 134 20 39 116 458 68 22 38 35 35
internal_value=0.4256 0.426388 0.430646 0.425989 0.425558 0.428805 0.42344 0.42262 0.426419 0.422111
internal_weight=0 724 62 662 574 88 264 207 57 169
internal_count=988 724 62 662 574 88 264 207 57 169
is_linear=0
shrinkage=1


Tree=1
num_leaves=11
num_cat=0
split_feature=1 3 0 3 1 0 0 3 2 0
split_gain=0.222319 0.162557 0.152042 0.110071 0.192312 0.085317 0.0424138 0.0315486 0.0315453 0.026989
threshold=23289.235000000004 0.59815568972586275 1659331800000.0002 0.98143896804777653 21230.215000000004 1660249800000.0002 1658165400000.0002 1.1489736907106785 62.565000000000005 1659029400000.0002
decision_type=2 2 2 2 2 2 2 2 2 2
left_child=1 2 -1 4 -3 7 -5 9 -7 -2
right_child=5 3 -4 6 -6 8 -8 -9 -10 -11
leaf_value=0.0098004403969515937 -0.0056952651815178491 0.0014890959270042244 0.0015993420244791571 0.00079283155334581223 -0.0019354314581191134 0.0029601743986131623 0.002949459514459774 -0.00065919709538942882 -0.00085164625536311754 -0.0027990079646095117
leaf_weight=23 24 189 39 133 236 24 104 38 33 145
leaf_count=23 24 189 39 133 236 24 104 38 33 145
internal_value=0 0.000724658 0.00464168 0.000357806 -0.000412524 -0.00198732 0.0017392 -0.00274199 0.000753331 -0.00321031
internal_weight=0 724 62 662 425 264 237 207 57 169
internal_count=988 724 62 662 425 264 237 207 57 169
is_linear=0
shrinkage=0.08


Tree=2
num_leaves=15
num_cat=0
split_feature=1 0 0 0 0 3 0 1 0 1 0 0 3 0
split_gain=0.19016 0.253765 0.274908 0.224411 0.131865 0.0638865 0.0568304 0.0662742 0.0537347 0.0405367 0.0574422 0.0430516 0.013125 0.0126219
threshold=23122.405000000002 1658842200000.0002 1658640600000.0002 1658943000000.0002 1657647000000.0002 0.78138467360384711 1660066200000.0002 24180.435000000001 1659879000000.0002 23414.675000000003 1659807000000.0002 1659259800000.0002 0.82958378960391499 1660368600000.0002
decision_type=2 2 2 2 2 2 2 2 2 2 2 2 2 2
left_child=1 2 4 -3 -1 -4 9 12 -5 10 -2 -11 -8 -9
right_child=6 3 5 8 -6 -7 7 13 -10 11 -12 -13 -14 -15
leaf_value=-0.00085041944203952048 -0.001907623349210351 0.010137024660195624 -0.0074411006655011862 0.0014341365969192019 0.0019350572806561422 -0.0018596799254772208 0.0040424783378839495 -0.0028795524061258349 0.0057934361425313087 -0.0020182143131581448 0.0026525545357303187 -0.0049651657668303472 0.0011789141588711314 -0.00037938425550237297
leaf_weight=208 90 28 35 102 228 21 20 28 22 90 22 49 21 24
leaf_count=208 90 28 35 102 228 21 20 28 22 90 22 49 21 24
internal_value=0 0.000811162 -7.15162e-05 0.00366825 0.000606206 -0.00534807 -0.00151857 0.000170689 0.00220756 -0.00214447 -0.00101187 -0.00305707 0.00257577 -0.00172563
internal_weight=0 644 492 152 436 56 344 93 124 251 112 139 41 52
internal_count=988 644 492 152 436 56 344 93 124 251 112 139 41 52
is_linear=0
shrinkage=0.08


Tree=3
num_leaves=14
num_cat=0
split_feature=1 0 0 0 0 3 0 1 0 1 0 0 0
split_gain=0.160952 0.214787 0.232682 0.189941 0.111611 0.0540735 0.0481012 0.0563129 0.0460096 0.0343102 0.048619 0.0372338 0.0155955
threshold=23122.405000000002 1658842200000.0002 1658640600000.0002 1658943000000.0002 1657647000000.0002 0.78138467360384711 1660066200000.0002 24043.345000000005 1659850200000.0002 23414.675000000003 1659807000000.0002 1659173400000.0002 1660249800000.0002
decision_type=2 2 2 2 2 2 2 2 2 2 2 2 2
left_child=1 2 4 -3 -1 -4 9 -8 -5 10 -2 -11 -9
right_child=6 3 5 8 -6 -7 7 12 -10 11 -12 -13 -14
leaf_value=-0.0007823858195339338 -0.0017550134924240409 0.0093260627612471586 -0.0068458124654633655 0.0011603935722737236 0.001780252719396039 -0.0017109055327074157 0.0026341059920378029 -0.0032072895057499405 0.004758717802042762 -0.0014354802851889734 0.0024403501801531424 -0.0040574811012420347 -0.00043453719894829634
leaf_weight=208 90 28 35 94 228 21 36 20 30 66 22 73 37
leaf_count=208 90 28 35 94 228 21 36 20 30 66 22 73 37
internal_value=0 0.000746269 -6.57949e-05 0.00337479 0.00055771 -0.00492022 -0.00139708 0.000157034 0.00203096 -0.00197291 -0.000930924 -0.0028125 -0.00140743
internal_weight=0 644 492 152 436 56 344 93 124 251 112 139 57
internal_count=988 644 492 152 436 56 344 93 124 251 112 139 57
is_linear=0
shrinkage=0.08


Tree=4
num_leaves=15
num_cat=0
split_feature=1 0 0 0 0 3 0 3 0 1 0 0 0 3
split_gain=0.136229 0.181796 0.196942 0.166768 0.104855 0.0671308 0.0582991 0.0457678 0.0407129 0.0485765 0.0300751 0.0534504 0.0139672 0.012603
threshold=23122.405000000002 1658842200000.0002 1658640600000.0002 1659015000000.0002 1657215000000.0002 0.73870516155150556 1659850200000.0002 0.78138467360384711 1660066200000.0002 24251.490000000002 1659951000000.0002 1659807000000.0002 1660368600000.0002 0.8274985600345085
decision_type=2 2 2 2 2 2 2 2 2 2 2 2 2 2
left_child=1 2 4 5 -1 -3 -5 -4 10 13 11 -2 -11 -10
right_child=8 3 7 6 -6 -7 -8 -9 9 12 -12 -13 -14 -15
leaf_value=0.0029802128939825875 -0.0019247916769003495 0.010645537666976453 -0.0062981475761958528 0.00022076263957257784 -0.00011077667018144402 0.0044272290766239168 0.0043780203213294351 -0.0015740330854342097 0.0034373981604308248 -0.0030730943187423378 -0.0042864078709057406 0.0021475015078549799 -0.00031427051716794574 0.00077896465836092832
leaf_weight=88 200 20 35 77 348 25 30 21 21 23 28 23 24 25
leaf_count=88 200 20 35 77 348 25 30 21 21 23 28 23 24 25
internal_value=0 0.000686567 -6.05313e-05 0.00310481 0.000513093 0.00719092 0.00138635 -0.0045266 -0.00128532 0.000144471 -0.00181508 -0.00150478 -0.00166433 0.0019926
internal_weight=0 644 492 152 436 45 107 56 344 93 251 223 47 46
internal_count=988 644 492 152 436 45 107 56 344 93 251 223 47 46
is_linear=0
shrinkage=0.08


Tree=5
num_leaves=13
num_cat=0
split_feature=1 0 0 0 0 0 2 3 0 3 0 2
split_gain=0.117481 0.0947732 0.202746 0.165686 0.145424 0.112519 0.0789507 0.0577354 0.0445617 0.0194437 0.0261809 0.016828
threshold=23289.235000000004 1658842200000.0002 1659015000000.0002 1658467800000.0002 1657920600000.0002 1659850200000.0002 56.095000000000006 0.73870516155150556 1660249800000.0002 1.1489736907106785 1659029400000.0002 62.565000000000005
decision_type=2 2 2 2 2 2 2 2 2 2 2 2
left_child=1 3 7 4 -1 -4 -5 -3 9 10 -2 -10
right_child=8 2 5 6 -6 -7 -8 -9 11 -11 -12 -13
leaf_value=-0.00037472331753774532 -0.004805186168911557 0.0097938946001231673 -0.00059933057607157111 0.00042019630704026931 0.002899854668886401 0.0040609300136566166 -0.0045763185350641382 0.004166106922285898 0.0021478734500124121 -0.00035495196518145109 -0.0019526171368257753 -0.0006362025745946801
leaf_weight=284 24 20 126 29 125 45 67 28 24 38 145 33
leaf_count=284 24 20 126 29 125 45 67 28 24 38 145 33
internal_value=0 0.000526779 0.00191669 -7.59747e-05 0.000626065 0.000627054 -0.00306695 0.00651102 -0.00144465 -0.00199006 -0.00235772 0.00053604
internal_weight=0 724 219 505 409 171 96 48 264 207 169 57
internal_count=988 724 219 505 409 171 96 48 264 207 169 57
is_linear=0
shrinkage=0.08


Tree=6
num_leaves=12
num_cat=0
split_feature=0 0 1 3 3 0 3 0 3 0 0
split_gain=0.115967 0.211043 0.240747 0.272642 0.131609 0.109856 0.0946878 0.0324611 0.0148322 0.0132358 0.00854667
threshold=1657215000000.0002 1657647000000.0002 21772.195000000003 0.78138467360384711 0.83911354897386115 1657373400000.0002 1.1876925141107624 1657013400000.0002 1.1090277885119375 1657575000000.0002 1657287000000.0002
decision_type=2 2 2 2 2 2 2 2 2 2 2
left_child=4 5 3 -3 -1 10 -4 -6 -9 -7 -2
right_child=1 2 6 -5 7 9 -8 8 -10 -11 -12
leaf_value=0.00782391671401759 0.0010082916966639459 0.0074051158476088732 -0.00098328145034154695 0.00068809305427595978 -0.0016121820766817441 -0.0058669698956821652 0.0018446587215784644 0.0036845698305183932 0.00067781547350542889 -0.0034694432308897379 -0.0012309144275301758
leaf_weight=24 20 56 510 125 22 56 89 21 21 20 24
leaf_count=24 20 56 510 125 22 56 89 21 21 20 24
internal_value=0 -0.000271018 0.000209486 0.00276629 0.00277177 -0.00339429 -0.000563103 0.00087722 0.00218119 -0.00523604 -0.000213093
internal_weight=0 900 780 181 88 120 599 64 42 76 44
internal_count=988 900 780 181 88 120 599 64 42 76 44
is_linear=0
shrinkage=0.08


Tree=7
num_leaves=12
num_cat=0
split_feature=0 0 1 3 3 0 3 3 2 0 0
split_gain=0.0981541 0.178626 0.203768 0.230764 0.111619 0.0929818 0.0801437 0.0254662 0.0277603 0.0112028 0.0072339
threshold=1657215000000.0002 1657647000000.0002 21772.195000000003 0.78138467360384711 0.75858844595881703 1657373400000.0002 1.1876925141107624 0.922439673361935 50.345000000000006 1657575000000.0002 1657287000000.0002
decision_type=2 2 2 2 2 2 2 2 2 2 2
left_child=4 5 3 -3 -1 10 -4 -6 -9 -7 -2
right_child=1 2 6 -5 7 9 -8 8 -10 -11 -12
leaf_value=0.0078036403059959418 0.00092762835137546063 0.0068127065032188381 -0.00090461891740286618 0.00063304559512995188 0.0033209498723347983 -0.005397612306156329 0.0016970860171445718 0.0018733187392354011 -0.0020160694485125336 -0.0031918878518044946 -0.0011324412744337072
leaf_weight=20 20 56 510 125 21 56 89 24 23 20 24
leaf_count=20 20 56 510 125 21 56 89 24 23 20 24
internal_value=0 -0.000249336 0.000192727 0.00254498 0.00255003 -0.00312275 -0.000518055 0.00100485 -2.99989e-05 -0.00481716 -0.000196046
internal_weight=0 900 780 181 88 120 599 68 47 76 44
internal_count=988 900 780 181 88 120 599 68 47 76 44
is_linear=0
shrinkage=0.08


Tree=8
num_leaves=12
num_cat=0
split_feature=1 0 0 0 3 0 0 0 2 2 3
split_gain=0.0859453 0.0885402 0.0712155 0.181773 0.0947834 0.0401386 0.014908 0.0459611 0.0183115 0.0142432 0.0061363
threshold=23289.235000000004 1659850200000.0002 1657215000000.0002 1657647000000.0002 0.83911354897386115 1660249800000.0002 1659173400000.0002 1659015000000.0002 62.110000000000007 62.565000000000005 0.66936789211813885
decision_type=2 2 2 2 2 2 2 2 2 2 2
left_child=1 2 4 -4 -1 6 7 -2 -8 -7 -3
right_child=5 10 3 -5 -6 9 8 -9 -10 -11 -12
leaf_value=0.0066334813037732003 -0.0030121876320668628 0.0029734277652333613 -0.0028729305619684359 0.00061483973334197379 0.00073823478029225956 0.0021270756014079477 -0.0014498101839342634 0.0009131056685665888 -0.0033672152313270736 -0.00043427435963442831 0.0048422776319255881
leaf_weight=24 35 23 120 471 64 24 74 42 56 33 22
leaf_count=24 35 23 120 471 64 24 74 42 56 33 22
internal_value=0 0.000450563 0.000222811 -9.3337e-05 0.00234603 -0.00123563 -0.00175327 -0.000871119 -0.00227577 0.000644189 0.00388709
internal_weight=0 724 679 591 88 264 207 77 130 57 45
internal_count=988 724 679 591 88 264 207 77 130 57 45
is_linear=0
shrinkage=0.08


Tree=9
num_leaves=14
num_cat=0
split_feature=1 0 0 0 0 0 3 3 0 1 0 2 2
split_gain=0.0767156 0.11759 0.142068 0.0838972 0.0650447 0.0417811 0.0332047 0.0308303 0.0260346 0.0180816 0.0619407 0.0207126 0.0165296
threshold=23119.610000000004 1658842200000.0002 1658640600000.0002 1659015000000.0002 1657647000000.0002 1659619800000.0002 0.73870516155150556 0.78138467360384711 1660271400000.0002 23414.675000000003 1659879000000.0002 60.435000000000009 62.800000000000004
decision_type=2 2 2 2 2 2 2 2 2 2 2 2 2
left_child=1 2 4 6 -1 -5 -3 -4 9 10 -2 -11 -10
right_child=8 3 7 5 -6 -7 -8 -9 12 11 -12 -13 -14
leaf_value=-0.00061171637131617626 -0.0013217328187793192 0.0078237703107297413 -0.0053263455467032544 -0.00048512823190928126 0.0013487297365767984 0.0027056606590812062 0.0034101465359951061 -0.001449048901420264 0.0025069121422711762 -0.003753031779612814 0.0034617209647383007 -0.0013815414344410617 -0.00044300531908389061
leaf_weight=208 99 20 35 48 226 58 24 21 20 28 21 149 31
leaf_count=208 99 20 35 48 226 58 24 21 20 28 21 149 31
internal_value=0 0.00051982 -8.01555e-05 0.00247974 0.000409161 0.00126078 0.00541634 -0.00387236 -0.000955991 -0.00124273 -0.000484628 -0.00175669 0.000713825
internal_weight=0 640 490 150 434 106 44 56 348 297 120 177 51
internal_count=988 640 490 150 434 106 44 56 348 297 120 177 51
is_linear=0
shrinkage=0.08


Tree=10
num_leaves=11
num_cat=0
split_feature=0 0 1 3 3 3 3 2 0 0
split_gain=0.0764062 0.168639 0.145449 0.180972 0.084339 0.0691078 0.0328101 0.0157851 0.0199872 0.00916745
threshold=1657287000000.0002 1657647000000.0002 21772.195000000003 0.78138467360384711 0.75858844595881703 1.1876925141107624 0.93598184052874045 50.280000000000008 1657085400000.0002 1657575000000.0002
decision_type=2 2 2 2 2 2 2 2 2 2
left_child=4 6 3 -3 -1 -4 9 -6 -9 -2
right_child=1 2 5 -5 7 -7 -8 8 -10 -11
leaf_value=0.0066976080089807509 -0.0046484715648387612 0.0059167687054390884 -0.00080940310072893386 0.00044425924815237524 0.002359813153743744 0.0016065412707459393 -0.00068802913407916611 -0.0013788979793233531 0.0016438493071681088 -0.0026577649824321269
leaf_weight=20 57 56 510 125 32 89 23 28 28 20
leaf_count=20 57 56 510 125 32 89 23 28 28 20
internal_value=0 -0.00024646 0.000150074 0.00213741 0.00200819 -0.00045044 -0.00333943 0.000942417 0.000132476 -0.0041314
internal_weight=0 880 780 181 108 599 100 88 56 77
internal_count=988 880 780 181 108 599 100 88 56 77
is_linear=0
shrinkage=0.08


Tree=11
num_leaves=11
num_cat=0
split_feature=0 0 1 3 3 0 0 0 3 0
split_gain=0.0646702 0.142736 0.123108 0.153175 0.0715086 0.0624882 0.0278893 0.0191384 0.00955603 0.00805216
threshold=1657287000000.0002 1657647000000.0002 21772.195000000003 0.78138467360384711 0.83911354897386115 1658280600000.0002 1657373400000.0002 1657013400000.0002 1.0417946978991897 1657575000000.0002
decision_type=2 2 2 2 2 2 2 2 2 2
left_child=4 6 3 -3 -1 -4 -2 -6 -9 -8
right_child=1 2 5 -5 7 -7 9 8 -10 -11
leaf_value=0.0056986936368048193 -0.00069483039590219667 0.0054434272382578846 0.0026818535026783747 0.00040871848434209825 -0.001279953584625301 -0.00063003680179826911 -0.0043151538446545602 0.0029057924598455431 0.00078115500720395224 -0.0024451438654214145
leaf_weight=24 24 56 39 125 22 560 56 20 42 20
leaf_count=24 24 56 39 125 22 560 56 20 42 20
internal_value=0 -0.000226743 0.000138068 0.00196642 0.00184754 -0.000414405 -0.00307227 0.000747207 0.00146652 -0.00382305
internal_weight=0 880 780 181 108 599 100 84 62 76
internal_count=988 880 780 181 108 599 100 84 62 76
is_linear=0
shrinkage=0.08


Tree=12
num_leaves=8
num_cat=0
split_feature=3 1 0 0 0 0 1
split_gain=0.1197 0.112079 0.096956 0.0762234 0.0970194 0.0551586 0.0485509
threshold=0.57162610114096923 22678.105000000007 1658986200000.0002 1657920600000.0002 1657301400000.0002 1660080600000.0002 21135.025000000005
decision_type=2 2 2 2 2 2 2
left_child=-1 3 -3 4 -2 -4 -5
right_child=1 2 5 6 -6 -7 -8
leaf_value=0.0030246099814588943 0.0020987880148298807 -0.0035078470799974905 -0.00093678268153746767 0.0040520396944599101 -0.00098194976702987297 0.0013750130760061291 0.0012290837114353368
leaf_weight=92.642854690551758 99.642854690551758 76.428569793701172 268.14284896850586 59.357141494750977 190.4999942779541 87.642854690551758 113.64285469055176
leaf_count=29 36 34 56 24 42 24 50
internal_value=0 3.88743e-06 -0.000922647 0.000868548 7.60584e-05 -0.000367304 0.00219765
internal_weight=0 895.357 432.214 463.143 290.143 355.786 173
internal_count=295 266 114 152 78 80 74
is_linear=0
shrinkage=0.08


Tree=13
num_leaves=9
num_cat=0
split_feature=3 3 2 0 0 3 1 3
split_gain=0.116847 0.119085 0.145473 0.11644 0.0321321 0.0280297 0.018395 0.0173648
threshold=1.0178795052286678 0.77801027268731693 50.680000000000007 1657935000000.0002 1659101400000.0002 1.3694361645978743 19856.280000000002 1.2060425745369339
decision_type=2 2 2 2 2 2 2 2
left_child=1 2 -1 -4 6 7 -3 -2
right_child=5 4 3 -5 -6 -7 -8 -9
leaf_value=0.0045826507085722544 0.0010148933533273268 -0.000913537773325064 -0.0036120271923311652 0.00061704801326800478 -0.00085752417389785198 9.005947466289845e-06 -0.0027692974972772211 0.0024332612798568178
leaf_weight=47.285713195800781 116.92856788635254 44.357141494750977 52.357141494750977 204.07142448425293 179.4999942779541 89.714282989501953 149.07142448425293 104.71428298950195
leaf_count=19 25 9 17 98 31 19 43 34
internal_value=0 -0.00067062 0.00050541 -0.000246437 -0.00162838 0.00120208 -0.00234373 0.001685
internal_weight=0 676.643 303.714 256.429 372.929 311.357 193.429 221.643
internal_count=295 217 134 115 83 78 52 59
is_linear=0
shrinkage=0.08


Tree=14
num_leaves=9
num_cat=0
split_feature=1 0 0 0 1 0 0 2
split_gain=0.0591111 0.0916412 0.0859702 0.144958 0.039517 0.0281264 0.031351 0.00561434
threshold=23119.610000000004 1658885400000.0002 1658496600000.0002 1657935000000.0002 22866.250000000004 1660037400000.0002 1659187800000.0002 61.595000000000006
decision_type=2 2 2 2 2 2 2 2
left_child=1 2 3 -1 -3 6 -2 -8
right_child=5 4 -4 -5 -6 -7 7 -9
leaf_value=-0.00032160292176804795 8.4012509996716104e-05 0.0040756934995161307 -0.0023997559541147394 0.003191821739065983 0.001381095718730902 0.00074288272362804176 -0.0010572751192498677 -0.0019481958963172917
leaf_weight=260.85713577270508 136.07142448425293 61.357141494750977 68.357141494750977 105.57142639160156 80.571426391601562 93.785711288452148 86.714282989501953 94.714282989501953
leaf_count=77 30 26 33 49 24 16 16 24
internal_value=0 0.000780945 0.000204773 0.000690647 0.002546 -0.000474365 -0.000833925 -0.00152238
internal_weight=0 576.714 434.786 366.429 141.929 411.286 317.5 181.429
internal_count=295 209 159 126 50 86 70 40
is_linear=0
shrinkage=0.08


Tree=15
num_leaves=9
num_cat=0
split_feature=3 3 2 0 0 3 1 0
split_gain=0.103725 0.117521 0.0804531 0.106259 0.0252722 0.0332177 0.0250203 0.021379
threshold=1.1429143150945389 0.79888251343899375 50.680000000000007 1658856600000.0002 1658568600000.0002 0.86017928504699648 21464.015000000003 1659159000000.0002
decision_type=2 2 2 2 2 2 2 2
left_child=1 2 -1 -4 5 -3 -2 -6
right_child=6 4 3 -5 7 -7 -8 -9
leaf_value=0.0044979403998807108 0.00070856706657562924 -0.0031233505116889872 -0.001641231503830523 0.0013050115179040406 7.9215651197905027e-05 -0.001139271079583489 0.0027219622362382239 -0.0014351743870174951
leaf_weight=30.142856597900391 80.642854690551758 95.714282989501953 126.64285469055176 205.42856597900391 99.857139587402344 123.92856788635254 77.428569793701172 148.21428108215332
leaf_count=16 17 25 63 64 15 32 35 28
internal_value=0 -0.000541159 0.000540611 0.000181396 -0.00137892 -0.00200388 0.00169479 -0.000825581
internal_weight=0 829.929 362.214 332.071 467.714 219.643 158.071 248.071
internal_count=295 243 143 127 100 57 52 43
is_linear=0
shrinkage=0.08


Tree=16
num_leaves=8
num_cat=0
split_feature=3 0 0 0 1 2 1
split_gain=0.115553 0.100163 0.118408 0.111487 0.0939826 0.0623453 0.0141091
threshold=0.57162610114096923 1658309400000.0002 1658050200000.0002 1658813400000.0002 23112.775000000005 50.470000000000006 22695.590000000004
decision_type=2 2 2 2 2 2 2
left_child=-1 2 5 6 -5 -2 -3
right_child=1 3 -4 4 -6 -7 -8
leaf_value=0.0033552671691463934 0.0012450027751838215 -0.00232691002748197 0.0033765189804155055 0.0015922984494579407 -0.0012319114645342152 -0.00091717473084459284 -0.004021502882872582
leaf_weight=57.357141494750977 139.99999618530273 62.428569793701172 77.428569793701172 105.71428298950195 263.07142066955566 218.64285087585449 63.357141494750977
leaf_count=22 41 20 35 35 58 56 28
internal_value=0 -0.000344496 0.000539374 -0.00112382 -0.000422337 -7.31461e-05 -0.00318046
internal_weight=0 930.643 436.071 494.571 368.786 358.643 125.786
internal_count=295 273 132 141 93 97 48
is_linear=0
shrinkage=0.08


Tree=17
num_leaves=6
num_cat=0
split_feature=3 0 0 1 3
split_gain=0.0760341 0.0927709 0.0819697 0.0999848 0.0055152
threshold=1.2698877087177556 1657243800000.0002 1657603800000.0002 21812.180000000004 1.4119379840932138
decision_type=2 2 2 2 2
left_child=1 -1 -3 -4 -2
right_child=4 2 3 -5 -6
leaf_value=0.0020608170616597098 0.0022548223096742277 -0.0023061274745702362 0.0017731745022527652 -0.00068428222142204414 0.0012151255665405051
leaf_weight=99.642854690551758 77.499998092651367 137.07142448425293 135.85713958740234 481.49998664855957 56.428569793701172
leaf_count=36 28 31 51 135 14
internal_value=0 -0.000233402 -0.000536416 -0.000143488 0.00181676
internal_weight=0 854.071 754.429 617.357 133.929
internal_count=295 253 217 186 42
is_linear=0
shrinkage=0.08


Tree=18
num_leaves=7
num_cat=0
split_feature=1 0 1 0 2 1
split_gain=0.0641858 0.0659431 0.12293 0.0927524 0.0310536 0.0165251
threshold=23318.410000000003 1658885400000.0002 22986.675000000003 1658640600000.0002 50.57500000000001 23812.755000000001
decision_type=2 2 2 2 2 2
left_child=1 3 -3 4 -1 -2
right_child=5 2 -4 -5 -6 -7
leaf_value=0.0013598305344997336 -0.0020713377819646696 0.0054491463889263106 2.3139003540323362e-05 -0.0027042246314403972 -0.00023929045037997967 -0.00078397744725319622
leaf_weight=95.571426391601562 139.07142448425293 38.071428298950195 89.642854690551758 91.642854690551758 416.0714168548584 117.92856788635254
leaf_count=39 33 31 26 28 112 26
internal_value=0 -1.07973e-05 0.00164062 -0.000360399 5.94145e-05 -0.00148061
internal_weight=0 731 127.714 603.286 511.643 257
internal_count=295 236 57 179 151 59
is_linear=0
shrinkage=0.08


Tree=19
num_leaves=6
num_cat=0
split_feature=2 0 1 3 0
split_gain=0.0927653 0.0644136 0.0351455 0.0954371 0.0849599
threshold=62.035000000000004 1659850200000.0002 21812.180000000004 0.71464320307384543 1657935000000.0002
decision_type=2 2 2 2 2
left_child=1 2 4 -4 -1
right_child=-2 -3 3 -5 -6
leaf_value=-2.8761140056880476e-05 -0.0021374294441117657 0.0028052297317478899 -0.0032474797508330946 0.00025497934104145659 0.0026229079153472692
leaf_weight=218.42856597900391 95.714282989501953 70.428569793701172 56.357141494750977 427.35713005065918 119.71428298950195
leaf_count=77 25 28 21 95 49
internal_value=0 0.000483292 0.000284314 -0.000153089 0.000910022
internal_weight=0 892.286 821.857 483.714 338.143
internal_count=295 270 242 116 126
is_linear=0
shrinkage=0.08


Tree=20
num_leaves=6
num_cat=0
split_feature=2 3 1 0 0
split_gain=0.0873709 0.075877 0.051896 0.0848292 0.0748146
threshold=61.735000000000007 1.2698877087177556 21620.105000000007 1658035800000.0002 1658957400000.0002
decision_type=2 2 2 2 2
left_child=1 2 3 -1 -4
right_child=-2 -3 4 -5 -6
leaf_value=3.5945362840603052e-05 -0.0018301034230778826 0.0023885932670117639 -0.0018607664126652249 0.0033290675094526548 0.00026748762305345969
leaf_weight=238.5714225769043 164.28570938110352 89.571426391601562 184.28570938110352 63.357141494750977 247.92856407165527
leaf_count=83 37 33 57 28 57
internal_value=0 0.000190419 -7.77766e-05 0.000726979 -0.000639948
internal_weight=0 823.714 734.143 301.929 432.214
internal_count=295 258 225 111 114
is_linear=0
shrinkage=0.08


Tree=21
num_leaves=7
num_cat=0
split_feature=2 0 1 0 3 3
split_gain=0.0465266 0.0601693 0.0873382 0.0731036 0.0474711 0.00910734
threshold=50.57500000000001 1657834200000.0002 22554.880000000005 1658943000000.0002 0.62002568951737069 0.86679511634190476
decision_type=2 2 2 2 2 2
left_child=5 -2 4 -4 -3 -1
right_child=1 2 3 -5 -6 -7
leaf_value=0.0025073212039635117 -0.0016740483321823912 0.0068484309315681455 -0.0022413738835684797 0.00016349763365549407 0.0014294897783524144 0.0010554349478099942
leaf_weight=50.285713195800781 121.85713958740234 10.999999999999998 97.642854690551758 471.71427154541016 174.07142448425293 61.428569793701172
leaf_count=22 37 11 34 104 68 19
internal_value=0 -2.46023e-05 0.00024182 -0.00024893 0.00175157 0.00170897
internal_weight=0 876.286 754.429 569.357 185.071 111.714
internal_count=295 254 217 138 79 41
is_linear=0
shrinkage=0.08


Tree=22
num_leaves=7
num_cat=0
split_feature=3 0 3 0 0 3
split_gain=0.0553153 0.0620084 0.0437419 0.0697429 0.0137809 0.00254405
threshold=0.6034921361922434 1657301400000.0002 1.2060425745369339 1660066200000.0002 1658237400000.0002 1.0417946978991897
decision_type=2 2 2 2 2 2
left_child=-1 5 3 -3 -4 -2
right_child=1 2 4 -5 -6 -7
leaf_value=0.0018602408166662494 0.0019474223931987944 -0.0010231587500358357 0.0016595259991504694 0.0016065465428989423 -2.115464000139825e-05 0.0011822598750173706
leaf_weight=89.642854690551758 52.214284896850586 588.28569793701172 68.428569793701172 72.499998092651367 57.428569793701172 59.499998092651367
leaf_count=26 31 164 26 23 15 10
internal_value=0 -0.000223812 -0.000474282 -0.000734633 0.000892632 0.00153989
internal_weight=0 898.357 786.643 660.786 125.857 111.714
internal_count=295 269 228 187 41 41
is_linear=0
shrinkage=0.08


Tree=23
num_leaves=9
num_cat=0
split_feature=3 0 0 0 0 0 3 2
split_gain=0.100723 0.0382134 0.0982375 0.0792455 0.0514854 0.0498572 0.0237725 0.0131986
threshold=1.2060425745369339 1658842200000.0002 1659187800000.0002 1658309400000.0002 1659619800000.0002 1658050200000.0002 1.3314048415721562 56.275000000000013
decision_type=2 2 2 2 2 2 2 2
left_child=1 3 -3 5 -4 -1 -2 -5
right_child=6 2 4 7 -6 -7 -8 -9
leaf_value=-0.00057575249157749205 0.0030421396503979591 0.002617583388116409 -0.0021110456521324338 -0.0012744113015941397 0.00029495566589327722 0.0018767184907282429 0.001161767502206772 -0.002885923225562817
leaf_weight=214.35713768005371 68.428569793701172 93.714282989501953 78.571426391601562 51.428569793701172 206.5714225769043 70.499998092651367 115.92856788635254 88.499998092651367
leaf_count=80 26 23 22 9 51 21 24 39
internal_value=0 -0.000213636 0.0003705 -0.000734614 -0.000368021 3.12156e-05 0.00185971 -0.00229364
internal_weight=0 803.643 378.857 424.786 285.143 284.857 184.357 139.929
internal_count=295 245 96 149 73 101 50 48
is_linear=0
shrinkage=0.08


Tree=24
num_leaves=9
num_cat=0
split_feature=0 0 3 0 0 0 0 3
split_gain=0.0408818 0.0834166 0.060679 0.0388887 0.0660921 0.0591767 0.0539483 0.0253962
threshold=1657776600000.0002 1657373400000.0002 0.89899686629849451 1658295000000.0002 1658899800000.0002 1659245400000.0002 1658050200000.0002 0.86679511634190476
decision_type=2 2 2 2 2 2 2 2
left_child=1 2 -1 6 7 -6 -2 -5
right_child=3 -3 -4 4 5 -7 -8 -9
leaf_value=0.0022777165206305035 -8.2439811910164034e-05 -0.0026855870814989115 -0.00096457704990147411 -0.0026440508187205586 0.0025583673377283251 3.1470695766610987e-05 0.0032257835711198106 -0.00063848177357096433
leaf_weight=57.357141494750977 67.428569793701172 107.78571128845215 103.78571128845215 65.357141494750977 71.428569793701172 349.71427536010742 59.285713195800781 105.85713958740234
leaf_count=22 25 30 26 30 29 81 31 21
internal_value=0 -0.000962835 0.000189484 0.000193353 -7.87518e-05 0.000460049 0.00146538 -0.00140406
internal_weight=0 268.929 161.143 719.071 592.357 421.143 126.714 171.214
internal_count=295 78 48 217 161 110 56 51
is_linear=0
shrinkage=0.08


Tree=25
num_leaves=6
num_cat=0
split_feature=0 0 0 2 0
split_gain=0.0592669 0.0567756 0.0614506 0.0754558 0.0301717
threshold=1657229400000.0002 1657776600000.0002 1658309400000.0002 55.695000000000007 1658064600000.0002
decision_type=2 2 2 2 2
left_child=-1 -2 4 -4 -3
right_child=1 2 3 -5 -6
leaf_value=0.0018790563473299645 -0.0021350360596838489 0.00031614778876828931 0.0027185324416009594 -0.00059963035841136751 0.0025785758353568493
leaf_weight=93.571426391601562 90.642854690551758 76.499998092651367 47.285713195800781 605.5714111328125 74.428569793701172
leaf_count=37 27 27 19 153 32
internal_value=0 -0.000237014 -2.29741e-05 -0.0003593 0.00143184
internal_weight=0 894.429 803.786 652.857 150.929
internal_count=295 258 231 172 59
is_linear=0
shrinkage=0.08


Tree=26
num_leaves=5
num_cat=0
split_feature=1 0 1 0
split_gain=0.034866 0.036092 0.0365559 0.0338648
threshold=19952.975000000002 1660080600000.0002 23378.235000000004 1657056600000.0002
decision_type=2 2 2 2
left_child=-1 2 3 -2
right_child=1 -3 -4 -5
leaf_value=0.0017106048813435679 -0.0047629787524541218 0.0014447319725720503 -0.0013904185510253233 0.00017773967774850223
leaf_weight=90.642854690551758 8.9999999999999982 106.78571128845215 122.85713958740234 658.71426773071289
leaf_count=27 9 29 38 192
internal_value=0 6.42629e-05 -0.000122203 0.000111145
internal_weight=0 897.357 790.571 667.714
internal_count=295 268 239 201
is_linear=0
shrinkage=0.08


Tree=27
num_leaves=7
num_cat=0
split_feature=2 0 0 1 0 3
split_gain=0.0271951 0.0223355 0.0620801 0.0544541 0.0329385 0.0234616
threshold=61.995000000000012 1658899800000.0002 1658467800000.0002 22809.145000000004 1657920600000.0002 0.67682704430632479
decision_type=2 2 2 2 2 2
left_child=1 2 4 -3 -1 -5
right_child=-2 3 -4 5 -6 -7
leaf_value=-0.00042508292390533187 -0.0011333100772125306 0.0029884818086126277 -0.0020489533323891406 -0.00098039077761840157 0.0011332845022474036 0.00056416998423788878
leaf_weight=240.64285087585449 160.28570938110352 48.285713195800781 106.71428298950195 90.714282989501953 135.78571128845215 205.5714225769043
leaf_count=78 33 20 36 20 58 50
internal_value=0 5.17189e-06 -0.000345782 0.000497263 0.000137053 9.12693e-05
internal_weight=0 827.714 483.143 344.571 376.429 296.286
internal_count=295 262 172 90 136 70
is_linear=0
shrinkage=0.08


Tree=28
num_leaves=10
num_cat=0
split_feature=3 3 0 1 0 2 3 0 3
split_gain=0.0631355 0.0428584 0.03738 0.0754495 0.0569093 0.0228512 0.0215529 0.0183668 0.0116603
threshold=0.81061615195296566 1.1606734769844784 1659821400000.0002 21533.705000000005 1657949400000.0002 52.280000000000008 1.3763943713935551 1658568600000.0002 0.71300381216088893
decision_type=2 2 2 2 2 2 2 2 2
left_child=2 5 3 4 -1 -2 -3 -7 -4
right_child=1 6 8 -5 -6 7 -8 -9 -10
leaf_value=0.0002134222889247621 0.00029048770640585468 0.0014686609837816287 0.0027065622202643563 -0.0012781006772311591 0.0039184853931173245 -0.0018397541455897806 -0.00033285541550971193 -0.0006342810202514586 0.0013005269405990724
leaf_weight=64.357141494750977 100.71428298950195 100.64285469055176 67.499998092651367 102.64285469055176 45.142856597900391 127.99999618530273 73.571426391601562 219.78570747375488 85.642854690551758
leaf_count=29 30 37 18 39 31 29 17 43 22
internal_value=0 -0.000357012 0.000967771 0.000280184 0.00174088 -0.000770654 0.000707873 -0.00107795 0.00192026
internal_weight=0 622.714 365.286 212.143 109.5 448.5 174.214 347.786 153.143
internal_count=295 156 139 99 60 102 54 72 40
is_linear=0
shrinkage=0.08


Tree=29
num_leaves=7
num_cat=0
split_feature=0 0 1 2 0 3
split_gain=0.0714254 0.0496661 0.0576921 0.0314691 0.0185284 0.0172324
threshold=1657215000000.0002 1657920600000.0002 22086.480000000003 62.035000000000004 1658064600000.0002 0.84001219150180739
decision_type=2 2 2 2 2 2
left_child=-1 5 4 -4 -3 -2
right_child=1 2 3 -5 -6 -7
leaf_value=0.0021701569755488833 -0.0022225465930255307 0.00047946314854080239 4.0586713394778127e-05 -0.001424746881464615 0.0023250204303003172 -0.00075618903652127851
leaf_weight=85.499998092651367 80.571426391601562 61.428569793701172 418.0714168548584 120.92856788635254 80.357141494750977 141.14285278320312
leaf_count=36 24 19 114 29 45 28
internal_value=0 -0.000249135 8.9544e-05 -0.000288172 0.00152543 -0.00128907
internal_weight=0 902.5 680.786 539 141.786 221.714
internal_count=295 259 207 143 64 52
is_linear=0
shrinkage=0.08


Tree=30
num_leaves=5
num_cat=0
split_feature=1 1 0 3
split_gain=0.0414277 0.022056 0.0281625 0.0355166
threshold=19520.190000000006 24180.435000000001 1659835800000.0002 0.54713049977258132
decision_type=2 2 2 2
left_child=-1 2 3 -2
right_child=1 -3 -4 -5
leaf_value=0.002588926521257009 -0.0022306241748651875 -0.0011814359766849792 0.0014325383932366571 7.782590023209996e-05
leaf_weight=40.285713195800781 45.357141494750977 95.785711288452148 90.571426391601562 715.99998092651367
leaf_count=12 10 18 34 221
internal_value=0 -3.04617e-05 9.89469e-05 -5.96979e-05
internal_weight=0 947.714 851.929 761.357
internal_count=295 283 265 231
is_linear=0
shrinkage=0.08


Tree=31
num_leaves=8
num_cat=0
split_feature=1 0 3 3 1 3 3
split_gain=0.0341536 0.0276285 0.0415031 0.0322634 0.0171036 0.0108784 0.00774826
threshold=23335.555000000004 1658899800000.0002 0.52309185871993569 0.66654816794354455 23138.720000000005 0.78295782818519111 0.73870516155150556
decision_type=2 2 2 2 2 2 2
left_child=1 3 -3 -1 -4 -5 -2
right_child=6 2 4 5 -6 -7 -8
leaf_value=-0.0030315950599590614 -0.00026166716182640144 -0.001699562675640986 0.001851360249517534 0.00072787475252273281 0.0002737011396422749 -0.00019989352680537532 -0.001495190198542596
leaf_weight=24.071428298950195 45.357141494750977 34.285713195800781 129.85713958740234 97.499998092651367 66.499998092651367 474.64284324645996 115.78571128845215
leaf_count=17 10 6 45 48 17 114 38
internal_value=0 0.000125122 0.000868628 -0.0001625 0.00131706 -4.17907e-05 -0.00114799
internal_weight=0 826.857 230.643 596.214 196.357 572.143 161.143
internal_count=295 247 68 179 62 162 48
is_linear=0
shrinkage=0.08


Tree=32
num_leaves=7
num_cat=0
split_feature=2 0 2 0 2 0
split_gain=0.0481115 0.0972613 0.0813066 0.0531982 0.0436406 0.0326072
threshold=61.995000000000012 1658885400000.0002 50.280000000000008 1659245400000.0002 57.965000000000011 1659634200000.0002
decision_type=2 2 2 2 2 2
left_child=1 2 -1 -3 -4 -5
right_child=-2 3 4 5 -6 -7
leaf_value=0.0016215956823286523 -0.0015045095951467585 0.0030246566071660186 -0.0004964411166603304 -0.00051953011423725576 -0.0023548339797026425 0.0014666055857050731
leaf_weight=97.642854690551758 128.99999618530273 83.571426391601562 354.35713386535645 89.714282989501953 104.78571128845215 128.92856788635254
leaf_count=34 30 27 121 19 27 37
internal_value=0 0.00015241 -0.000474748 0.00130786 -0.000920564 0.000651648
internal_weight=0 859 556.786 302.214 459.143 218.643
internal_count=295 265 182 83 148 56
is_linear=0
shrinkage=0.08


Tree=33
num_leaves=10
num_cat=0
split_feature=3 1 0 0 3 1 0 3 0
split_gain=0.0328715 0.0423292 0.0689354 0.0386657 0.0160852 0.0116426 0.0214753 0.00883684 0.00803828
threshold=0.77513026766600956 21510.800000000003 1659821400000.0002 1657935000000.0002 0.94119056508248622 23656.750000000004 1658151000000.0002 0.89899686629849451 1658568600000.0002
decision_type=2 2 2 2 2 2 2 2 2
left_child=1 3 -3 -1 7 6 -6 8 -2
right_child=4 2 -4 -5 5 -7 -8 -9 -10
leaf_value=0.00074030023158787252 -0.00098062126708982887 -0.0020028990446977913 0.0011904591150996397 0.0034114604479816937 -0.00034450258590831346 -0.0006317437330591772 0.00098078831481583466 -0.0014249280625750185 0.00010793586841190931
leaf_weight=83.571426391601562 77.499998092651367 68.357141494750977 117.85713958740234 59.285713195800781 144.07142448425293 95.785711288452148 171.28570938110352 71.571426391601562 98.714282989501953
leaf_count=27 28 33 33 31 38 18 44 15 28
internal_value=0 0.000812925 1.82137e-05 0.00184883 -0.000166145 0.000140705 0.000375327 -0.000675291 -0.000370817
internal_weight=0 329.071 186.214 142.857 658.929 411.143 315.357 247.786 176.214
internal_count=295 124 66 58 171 100 82 71 56
is_linear=0
shrinkage=0.08


Tree=34
num_leaves=6
num_cat=0
split_feature=0 0 1 2 0
split_gain=0.0380881 0.0531282 0.026926 0.055226 0.0217736
threshold=1657215000000.0002 1657647000000.0002 23171.395000000004 60.785000000000004 1657920600000.0002
decision_type=2 2 2 2 2
left_child=-1 -2 4 -4 -3
right_child=1 2 3 -5 -6
leaf_value=0.0019678825819665706 -0.0013638057305471148 -0.00026499465915397934 -0.0020837850256088743 0.00034087513854938321 0.0010096074383703813
leaf_weight=69.357141494750977 148.14285278320312 114.92856788635254 80.571426391601562 236.85713577270508 338.14284896850586
leaf_count=34 35 23 24 53 126
internal_value=0 2.36688e-05 0.000290436 -0.000274565 0.000686285
internal_weight=0 918.643 770.5 317.429 453.071
internal_count=295 261 226 77 149
is_linear=0
shrinkage=0.08


Tree=35
num_leaves=7
num_cat=0
split_feature=2 0 0 0 0 1
split_gain=0.0193034 0.0464026 0.0653386 0.0391551 0.0194029 0.0193945
threshold=50.280000000000008 1657920600000.0002 1658280600000.0002 1658827800000.0002 1657373400000.0002 21111.480000000007
decision_type=2 2 2 2 2 2
left_child=-1 4 5 -4 -2 -3
right_child=1 2 3 -5 -6 -7
leaf_value=0.00098209552397154312 -0.0002082884101032913 0.0034762523644339964 -0.0011995314395664249 0.00018053208118166904 -0.0019061092795046447 0.0011418624454646604
leaf_weight=89.571426391601562 64.428569793701172 34.142856597900391 194.42856597900391 406.9999885559082 129.99999618530273 68.428569793701172
leaf_count=33 22 20 53 110 31 26
internal_value=0 -0.000249475 5.26684e-05 -0.000265612 -0.0013435 0.00191891
internal_weight=0 898.429 704 601.429 194.429 102.571
internal_count=295 262 209 163 53 46
is_linear=0
shrinkage=0.08


Tree=36
num_leaves=6
num_cat=0
split_feature=1 0 3 1 1
split_gain=0.0373233 0.0391981 0.0388194 0.0373065 0.0191191
threshold=24251.490000000002 1660080600000.0002 1.0178795052286678 21464.015000000003 22086.480000000003
decision_type=2 2 2 2 2
left_child=1 2 3 -1 -4
right_child=-2 -3 4 -5 -6
leaf_value=0.00057856001718281625 -0.0015282341707053679 0.0019857587025495253 0.0017502479678186363 -0.0007479169658495047 0.00034346684638850953
leaf_weight=218.28570938110352 79.642854690551758 78.571426391601562 107.71428298950195 358.64284706115723 145.14285278320312
leaf_count=91 16 22 37 97 32
internal_value=0 0.000277929 0.000116216 -0.000246033 0.00094274
internal_weight=0 908.357 829.786 576.929 252.857
internal_count=295 279 257 188 69
is_linear=0
shrinkage=0.08


Tree=37
num_leaves=7
num_cat=0
split_feature=0 0 2 0 0 0
split_gain=0.0361049 0.0998721 0.044438 0.0248838 0.0221847 0.0184651
threshold=1657387800000.0002 1657661400000.0002 58.585000000000008 1659173400000.0002 1657099800000.0002 1658165400000.0002
decision_type=2 2 2 2 2 2
left_child=4 -2 5 -4 -1 -3
right_child=1 2 3 -5 -6 -7
leaf_value=0.00019583361558982943 -0.0025511418704896273 -4.7268939933343169e-05 0.00067576361370006029 -0.00070685684842894305 0.0025145290496932609 0.0012813151413575041
leaf_weight=53.285713195800781 103.78571128845215 99.571426391601562 107.78571128845215 366.85713195800781 52.357141494750977 204.35713768005371
leaf_count=25 26 43 30 84 17 70
internal_value=0 -0.000219991 9.07578e-05 -0.00039288 0.00134499 0.000846052
internal_weight=0 882.357 778.571 474.643 105.643 303.929
internal_count=295 253 227 114 42 113
is_linear=0
shrinkage=0.08


Tree=38
num_leaves=10
num_cat=0
split_feature=3 0 1 3 0 1 0 1 2
split_gain=0.0399683 0.0139141 0.0240668 0.01092 0.0253598 0.0228159 0.0138076 0.0201078 0.00725446
threshold=0.68519814166433657 1659821400000.0002 21451.905000000002 0.95046070070413768 1660023000000.0002 21111.480000000007 1658151000000.0002 23131.495000000003 50.165000000000006
decision_type=2 2 2 2 2 2 2 2 2
left_child=1 2 -1 4 5 -2 8 -8 -5
right_child=3 -3 -4 6 -6 -7 7 -9 -10
leaf_value=0.0014335135200673188 0.00018732741108726838 0.0020466390414071532 -0.0013471080844596212 4.8020149985107976e-05 0.00064868107936849422 -0.0013149891605780529 0.0012868466613741938 -0.00024391247080205592 -0.00100533907500333
leaf_weight=55.285713195800781 85.499998092651367 56.428569793701172 31.142856597900391 66.499998092651367 77.571426391601562 265.92856407165527 86.571426391601562 150.21428108215332 112.85713958740234
leaf_count=27 36 14 17 17 21 75 30 30 28
internal_value=0 0.00106952 0.000431571 -0.000377284 -0.000660507 -0.000949487 -8.53105e-05 0.00031575 -0.000614787
internal_weight=0 142.857 86.4286 845.143 429 351.429 416.143 236.786 179.357
internal_count=295 58 44 237 132 111 105 60 45
is_linear=0
shrinkage=0.08


Tree=39
num_leaves=7
num_cat=0
split_feature=0 0 0 0 0 3
split_gain=0.0547859 0.0824829 0.030677 0.0406489 0.0282486 0.0128093
threshold=1657287000000.0002 1657647000000.0002 1659173400000.0002 1658885400000.0002 1659418200000.0002 0.88554333960468012
decision_type=2 2 2 2 2 2
left_child=5 -2 3 -3 -4 -1
right_child=1 2 4 -5 -6 -7
leaf_value=0.0027895595909075001 -0.0021959708319569445 -4.7872806531524813e-05 -0.0019768815565933302 0.001911333236238163 -0.00024966971501540447 0.00084770079413165513
leaf_weight=37.214284896850586 141.14285278320312 268.64285087585449 74.571426391601562 90.642854690551758 323.49999046325684 52.285713195800781
leaf_count=16 28 106 18 27 76 24
internal_value=0 -0.000420417 -8.95205e-05 0.000446408 -0.000573231 0.00165513
internal_weight=0 898.5 757.357 359.286 398.071 89.5
internal_count=295 255 227 133 94 40
is_linear=0
shrinkage=0.08


Tree=40
num_leaves=6
num_cat=0
split_feature=2 0 1 0 2
split_gain=0.0211631 0.0220551 0.0244801 0.0386469 0.0348948
threshold=62.110000000000007 1659893400000.0002 22482.215000000004 1658064600000.0002 59.545000000000009
decision_type=2 2 2 2 2
left_child=1 2 3 -1 -4
right_child=-2 -3 4 -5 -6
leaf_value=-3.012837829527012e-05 -0.001178251437522604 0.0014047151067228137 -0.00096763628466650013 0.001612025368569091 0.00061559895915672396
leaf_weight=302.07142066955566 79.571426391601562 85.571426391601562 250.92856407165527 131.71428298950195 138.14285278320312
leaf_count=97 23 29 60 61 25
internal_value=0 0.000182361 5.52451e-05 0.000468494 -0.000405496
internal_weight=0 908.429 822.857 433.786 389.071
internal_count=295 272 243 158 85
is_linear=0
shrinkage=0.08


Tree=41
num_leaves=5
num_cat=0
split_feature=3 1 1 3
split_gain=0.0224394 0.0221852 0.0206212 0.0138489
threshold=0.62002568951737069 19856.280000000002 20475.225000000002 0.70588957937999586
decision_type=2 2 2 2
left_child=-1 -2 -3 -4
right_child=1 2 3 -5
leaf_value=0.001470433011468141 0.00137969510649121 -0.0013077512731715852 -0.00092121159565961648 0.0001034370299002539
leaf_weight=66.428569793701172 64.428569793701172 89.642854690551758 96.571426391601562 670.92855262756348
leaf_count=24 22 26 40 183
internal_value=0 -5.19793e-05 -0.000159593 -2.54904e-05
internal_weight=0 921.571 857.143 767.5
internal_count=295 271 249 223
is_linear=0
shrinkage=0.08


Tree=42
num_leaves=8
num_cat=0
split_feature=0 0 1 0 2 1 1
split_gain=0.0650484 0.0338028 0.025681 0.0203345 0.0185188 0.0171554 0.00944629
threshold=1657647000000.0002 1657301400000.0002 22993.110000000004 1658914200000.0002 48.795000000000009 23889.090000000004 23435.895000000004
decision_type=2 2 2 2 2 2 2
left_child=1 -1 3 4 -2 6 -4
right_child=2 -3 5 -5 -6 -7 -8
leaf_value=-6.6471786065733956e-05 0.0022874957535000727 -0.0021372624371705827 5.1318595238201684e-05 0.0020684722093599478 0.00037704367051407685 0.00099901702441848855 -0.00086303993808070243
leaf_weight=95.571426391601562 37.285713195800781 106.85713958740234 219.71427917480469 79.499998092651367 251.5714225769043 89.714282989501953 107.78571128845215
leaf_count=39 9 22 50 30 96 19 30
internal_value=0 -0.00115959 0.000448675 0.000935472 0.000623645 1.88827e-05 -0.000249612
internal_weight=0 202.429 785.571 368.357 288.857 417.214 327.5
internal_count=295 61 234 135 105 99 80
is_linear=0
shrinkage=0.08


Tree=43
num_leaves=10
num_cat=0
split_feature=3 3 0 0 2 1 3 0 3
split_gain=0.021508 0.025934 0.0214924 0.0397457 0.0182474 0.0158831 0.013474 0.00845772 0.00593358
threshold=0.73673108211219507 0.66525788249358386 1658050200000.0002 1658309400000.0002 59.235000000000007 21299.560000000001 0.8828640207457995 1658899800000.0002 1.3559290980230225
decision_type=2 2 2 2 2 2 2 2 2
left_child=1 7 6 -4 -5 -3 -2 -1 -8
right_child=2 5 3 4 -6 -7 8 -9 -10
leaf_value=-0.0010840902775650495 -0.0015860991843858285 0.0023125031386653071 0.0016907003824649608 -0.00093485595195072003 0.00015322171510677839 0.00057376239870652159 2.4791090450173991e-06 0.00027576326004241848 -0.0010494798135531288
leaf_weight=54.357141494750977 109.85713958740234 55.357141494750977 74.428569793701172 175.21428108215332 225.71427917480469 85.642854690551758 87.571426391601562 63.428569793701172 56.428569793701172
leaf_count=19 25 20 32 55 56 22 31 21 14
internal_value=0 0.000524432 -0.000324496 -7.10912e-06 -0.000322291 0.0012564 -0.000918815 -0.000351798 -0.000409747
internal_weight=0 258.786 729.214 475.357 400.929 141 253.857 117.786 144
internal_count=295 82 213 143 111 42 70 40 45
is_linear=0
shrinkage=0.08


Tree=44
num_leaves=9
num_cat=0
split_feature=0 2 0 0 3 0 3 0
split_gain=0.0177763 0.025343 0.0476114 0.0499204 0.04079 0.0403412 0.0287442 0.0180703
threshold=1660080600000.0002 56.990000000000002 1658079000000.0002 1658727000000.0002 0.81847663926127534 1659835800000.0002 0.76729441046462055 1658943000000.0002
decision_type=2 2 2 2 2 2 2 2
left_child=1 2 6 -4 5 -3 -1 -6
right_child=-2 4 3 -5 7 -7 -8 -9
leaf_value=0.0010339674140247535 0.00087587622686262194 -0.0028543329104358671 0.003084238926299018 -0.00049097556607460271 -0.0011753167302897595 -0.00056455928155208098 -0.00075664284273930572 0.00030096819112936329
leaf_weight=72.428569793701172 80.571426391601562 93.642854690551758 59.285713195800781 43.214284896850586 74.499998092651367 103.85713958740234 276.07142066955566 184.42856597900391
leaf_count=30 24 30 31 22 25 19 71 43
internal_value=0 -0.00036404 6.1276e-05 0.00157692 -0.000784297 -0.00165023 -0.000384501 -0.000123795
internal_weight=0 907.429 451 102.5 456.429 197.5 348.5 258.929
internal_count=295 271 154 53 117 49 101 68
is_linear=0
shrinkage=0.08


Tree=45
num_leaves=8
num_cat=0
split_feature=2 0 3 2 1 2 3
split_gain=0.0210219 0.0192599 0.0388854 0.0406253 0.0201959 0.0219333 0.00566101
threshold=61.955000000000005 1658885400000.0002 1.0503984766181895 51.940000000000005 22986.675000000003 60.955000000000005 1.141000227981573
decision_type=2 2 2 2 2 2 2
left_child=1 2 3 -1 -3 -6 -4
right_child=-2 4 6 -5 5 -7 -8
leaf_value=0.00065840286495496105 -0.00070722623573170958 0.0014988728097024033 0.0016215747133464192 -0.0013002935706931155 -0.00082684951692956203 0.00087532197847152795 0.00064190473005362281
leaf_weight=108.64285469055176 138.07142448425293 152.14285278320312 51.428569793701172 180.14285278320312 73.499998092651367 142.14285278320312 141.92856788635254
leaf_count=45 32 39 9 67 24 29 50
internal_value=0 0.000357068 2.44576e-05 -0.000563421 0.000793098 0.000295152 0.000902475
internal_weight=0 849.929 482.143 288.786 367.786 215.643 193.357
internal_count=295 263 171 112 92 53 59
is_linear=0
shrinkage=0.08


Tree=46
num_leaves=7
num_cat=0
split_feature=0 2 3 1 1 3
split_gain=0.0223556 0.0641859 0.0402683 0.0197247 0.0455298 0.0315252
threshold=1659850200000.0002 62.340000000000011 1.2698877087177556 21072.675000000007 20475.225000000002 0.78748885440140304
decision_type=2 2 2 2 2 2
left_child=2 -2 3 4 -1 -5
right_child=1 -3 -4 5 -6 -7
leaf_value=-0.00071917691007947952 0.0021495775851594766 -0.00076229899673961035 0.001469631831607359 -0.0017373855068491646 0.0016399692589064289 -0.00022035200365326941
leaf_weight=115.78571128845215 109.78571128845215 86.714282989501953 93.571426391601562 114.71428298950195 95.571426391601562 371.85713195800781
leaf_count=38 32 16 37 44 39 89
internal_value=0 0.000864584 -8.8772e-05 -0.000297708 0.000347581 -0.000578008
internal_weight=0 196.5 791.5 697.929 211.357 486.571
internal_count=295 48 247 210 77 133
is_linear=0
shrinkage=0.08


Tree=47
num_leaves=5
num_cat=0
split_feature=3 0 0 0
split_gain=0.0176466 0.0170462 0.0145723 0.0277054
threshold=0.62002568951737069 1657301400000.0002 1660080600000.0002 1659173400000.0002
decision_type=2 2 2 2
left_child=-1 -2 3 -3
right_child=1 2 -4 -5
leaf_value=0.0011758224638249175 0.00084319557715336257 -0.00013088424683530976 0.00062682428821692797 -0.0012737539647566169
leaf_weight=66.428569793701172 94.571426391601562 548.92855644226074 97.714282989501953 180.35713768005371
leaf_count=24 38 160 27 46
internal_value=0 -0.000174251 -0.000290601 -0.000413523
internal_weight=0 921.571 827 729.286
internal_count=295 271 233 206
is_linear=0
shrinkage=0.08


Tree=48
num_leaves=5
num_cat=0
split_feature=3 0 3 3
split_gain=0.0166522 0.0126227 0.0127391 0.0144046
threshold=0.57162610114096923 1657114200000.0002 1.3694361645978743 0.71187530049144121
decision_type=2 2 2 2
left_child=-1 -2 3 -3
right_child=1 2 -4 -5
leaf_value=0.0011547293776284872 -0.0016925381471283168 -0.00076609653096603478 -0.0011708889620024397 0.0001012022653125118
leaf_weight=61.428569793701172 35.142856597900391 149.99999618530273 71.499998092651367 669.92855262756348
leaf_count=19 21 51 22 182
internal_value=0 -0.000205397 -0.00014677 -5.74638e-05
internal_weight=0 926.571 891.429 819.929
internal_count=295 276 255 233
is_linear=0
shrinkage=0.08


Tree=49
num_leaves=6
num_cat=0
split_feature=1 1 1 0 0
split_gain=0.0275221 0.0196162 0.0215292 0.0218353 0.0211285
threshold=19845.370000000006 20475.225000000002 22678.105000000007 1658971800000.0002 1657920600000.0002
decision_type=2 2 2 2 2
left_child=-1 -2 4 -4 -3
right_child=1 2 3 -5 -6
leaf_value=0.0015315308234001041 -0.001314731105571285 -0.0004866797597971248 -0.0016473873314501633 -0.00025156760361330838 0.00077784961895777051
leaf_weight=56.357141494750977 105.78571128845215 134.99999618530273 88.642854690551758 375.85713195800781 226.35713768005371
leaf_count=21 28 36 25 93 92
internal_value=0 -0.000289051 -0.00015767 -0.000517939 0.000305432
internal_weight=0 931.643 825.857 464.5 361.357
internal_count=295 274 246 118 128
is_linear=0
shrinkage=0.08


Tree=50
num_leaves=10
num_cat=0
split_feature=3 1 3 0 3 3 2 0 1
split_gain=0.0176603 0.021121 0.0256424 0.034448 0.0311824 0.0131312 0.0102547 0.0255016 0.0132374
threshold=0.78589635217240317 19624.785000000003 1.1876925141107624 1658568600000.0002 1.3247967688759872 0.76051394373015613 56.275000000000013 1657935000000.0002 23268.515000000003
decision_type=2 2 2 2 2 2 2 2 2
left_child=5 -2 3 -3 -4 6 7 -1 -8
right_child=1 2 4 -5 -6 -7 8 -9 -10
leaf_value=-0.00077549153886225224 0.0017025526742226133 -0.0016097942547921122 0.0014985155186251851 -0.00020578950712707845 -0.00085204946474093206 0.001228416634476869 -0.0011368627712646674 0.0016796294743394793 0.00025054589697301677
leaf_weight=47.285713195800781 28.214284896850586 202.42856597900391 76.499998092651367 249.92856407165527 68.428569793701172 72.499998092651367 77.499998092651367 63.357141494750977 101.85713958740234
leaf_count=19 7 61 27 59 26 23 28 28 17
internal_value=0 -0.000436343 -0.00053738 -0.000834078 0.000388687 0.000265435 2.46892e-05 0.000630378 -0.000348952
internal_weight=0 625.5 597.286 452.357 144.929 362.5 290 110.643 179.357
internal_count=295 180 173 120 53 115 92 47 45
is_linear=0
shrinkage=0.08


Tree=51
num_leaves=5
num_cat=0
split_feature=0 0 0 2
split_gain=0.0173001 0.0292864 0.0256446 0.0183562
threshold=1656999000000.0002 1657287000000.0002 1657704600000.0002 58.785000000000004
decision_type=2 2 2 2
left_child=-1 -2 -3 -4
right_child=1 2 3 -5
leaf_value=-0.0021171208724099981 0.00127472480800697 -0.0014294740073981179 0.00040548177796129929 -0.00037798953350546985
leaf_weight=24.142856597900391 110.78571128845215 84.642854690551758 407.71427536010742 360.71427536010742
leaf_count=10 33 21 139 92
internal_value=0 5.1046e-05 -0.000107869 3.77062e-05
internal_weight=0 963.857 853.071 768.429
internal_count=295 285 252 231
is_linear=0
shrinkage=0.08


Tree=52
num_leaves=6
num_cat=0
split_feature=2 1 1 2 0
split_gain=0.0133692 0.0192097 0.0131306 0.0258562 0.0241758
threshold=49.995000000000012 20475.225000000002 22695.590000000004 58.090000000000011 1658079000000.0002
decision_type=2 2 2 2 2
left_child=-1 -2 4 -4 -3
right_child=1 2 3 -5 -6
leaf_value=0.0011214742604369174 -0.0013069668010804625 -2.0618263407872654e-05 -0.0016359854282840347 8.1424701780862153e-05 0.0014548944992564257
leaf_weight=75.499998092651367 65.428569793701172 187.35713768005371 63.499998092651367 481.71427154541016 114.49999809265137
leaf_count=26 23 53 14 114 65
internal_value=0 1.37511e-05 0.000115765 -0.000118599 0.000539071
internal_weight=0 912.5 847.071 545.214 301.857
internal_count=295 269 246 128 118
is_linear=0
shrinkage=0.08


Tree=53
num_leaves=8
num_cat=0
split_feature=3 0 0 0 1 1 1
split_gain=0.012564 0.0197711 0.0144883 0.0233514 0.0144027 0.0189662 0.0215304
threshold=0.86062372427954414 1659893400000.0002 1659187800000.0002 1658827800000.0002 20037.165000000005 20622.980000000003 22613.415000000005
decision_type=2 2 2 2 2 2 2
left_child=1 2 3 -1 -2 -6 -7
right_child=4 -3 -4 -5 5 6 -8
leaf_value=3.2061576005328256e-05 0.0011285884106779238 0.0016364628116585518 -0.0007529496562640025 0.0016691377149881223 -0.0015772550761453863 0.00062711851047381076 -0.00057990779194236081
leaf_weight=241.5714225769043 47.285713195800781 67.428569793701172 87.714282989501953 72.499998092651367 67.499998092651367 151.07142448425293 252.92856407165527
leaf_count=86 19 25 17 23 18 45 62
internal_value=0 0.000368824 0.000156086 0.000409963 -0.000202462 -0.00033595 -0.000128553
internal_weight=0 469.214 401.786 314.071 518.786 471.5 404
internal_count=295 151 126 109 144 125 107
is_linear=0
shrinkage=0.08


Tree=54
num_leaves=6
num_cat=0
split_feature=1 3 0 0 3
split_gain=0.0153861 0.0210965 0.0221095 0.0196607 0.0178265
threshold=20037.165000000005 1.3314048415721562 1658079000000.0002 1657431000000.0002 0.6992410924290221
decision_type=2 2 2 2 2
left_child=-1 2 3 -2 -4
right_child=1 -3 4 -5 -6
leaf_value=0.0011790927590895391 -7.5391185773193538e-05 -0.0013117754041595158 -0.00055351095282032265 -0.0017171349635611186 0.00039143608652925533
leaf_weight=53.285713195800781 98.714282989501953 100.78571128845215 175.28570938110352 88.571426391601562 471.35713005065918
leaf_count=25 28 23 48 32 139
internal_value=0 -0.000218522 -8.63955e-05 -0.000851807 0.000135289
internal_weight=0 934.714 833.929 187.286 646.643
internal_count=295 270 247 60 187
is_linear=0
shrinkage=0.08


Tree=55
num_leaves=8
num_cat=0
split_feature=3 0 0 2 1 0 2
split_gain=0.0217486 0.0378643 0.0444543 0.02083 0.0205815 0.0154994 0.0104108
threshold=0.95919777208120371 1657373400000.0002 1660080600000.0002 59.235000000000007 22182.520000000004 1657589400000.0002 51.850000000000009
decision_type=2 2 2 2 2 2 2
left_child=1 -1 5 4 6 -3 -2
right_child=3 2 -4 -5 -6 -7 -8
leaf_value=0.0024356774654068201 0.00018937425771124443 -0.0025685611534484116 0.0013197234305824751 0.0015029482951075999 -0.00068179532526544881 -0.00053075831918947053 0.0015311233111575953
leaf_weight=33.142856597900391 83.571426391601562 25.142856597900391 87.642854690551758 109.85713958740234 103.78571128845215 478.42855834960938 66.428569793701172
leaf_count=19 27 11 24 25 26 139 24
internal_value=0 -0.000195595 -0.000343102 0.000582675 0.000184313 -0.000632504 0.000783577
internal_weight=0 624.357 591.214 363.643 253.786 503.571 150
internal_count=295 193 174 102 77 150 51
is_linear=0
shrinkage=0.08


Tree=56
num_leaves=8
num_cat=0
split_feature=0 0 0 0 0 0 3
split_gain=0.0133565 0.014783 0.0419509 0.024796 0.0270822 0.017533 0.00828986
threshold=1660080600000.0002 1658309400000.0002 1658050200000.0002 1658856600000.0002 1659173400000.0002 1657474200000.0002 0.80425192848378158
decision_type=2 2 2 2 2 2 2
left_child=1 2 5 6 -5 -1 -3
right_child=-2 3 -4 4 -6 -7 -8
leaf_value=0.00051137039528865883 0.00078053667953627271 -0.0024177824838643759 0.0018750129865710535 0.0010172995090146622 -0.0006252475074819035 -0.00065501316266679689 -0.0010418669268560438
leaf_weight=126.85713958740234 91.642854690551758 36.214284896850586 71.357141494750977 92.642854690551758 209.5714225769043 235.78570747375488 123.92856788635254
leaf_count=42 28 15 36 29 54 59 32
internal_value=0 -0.000233434 0.000101898 -0.000548199 -0.00012173 -0.000246997 -0.00135301
internal_weight=0 896.357 434 462.357 302.214 362.643 160.143
internal_count=295 267 137 130 83 101 47
is_linear=0
shrinkage=0.08


Tree=57
num_leaves=6
num_cat=0
split_feature=0 1 0 3 3
split_gain=0.0405013 0.0219259 0.0147819 0.0126854 0.0113388
threshold=1656941400000.0002 23504.665000000005 1659864600000.0002 0.85659706921397516 0.56296514663402097
decision_type=2 2 2 2 2
left_child=-1 2 4 -3 -2
right_child=1 3 -4 -5 -6
leaf_value=0.0029439808746339812 -0.00072521816713639253 0.00012199420468504087 0.0014372946869807186 -0.001268627386301271 0.00029301206071997526
leaf_weight=33.285713195800781 78.642854690551758 70.499998092651367 65.428569793701172 103.78571128845215 636.35712623596191
leaf_count=5 15 21 23 26 205
internal_value=0 0.000105165 0.000286339 -0.00070611 0.000181017
internal_weight=0 954.714 780.429 174.286 715
internal_count=295 290 243 47 220
is_linear=0
shrinkage=0.08


Tree=58
num_leaves=7
num_cat=0
split_feature=1 0 0 3 0 0
split_gain=0.0300735 0.0305049 0.0396813 0.0165118 0.0158763 0.0288494
threshold=24065.450000000004 1658885400000.0002 1658669400000.0002 0.75202042670229974 1659231000000.0002 1659619800000.0002
decision_type=2 2 2 2 2 2
left_child=1 2 3 -1 -3 -6
right_child=-2 4 -4 -5 5 -7
leaf_value=0.00098798763567910447 -0.0013904506647571496 0.0014832026113306845 -0.001921499523810028 -0.00020515007302952291 -0.0004254728834905434 0.0012335128458631061
leaf_weight=94.642854690551758 87.714282989501953 115.85713958740234 76.571426391601562 344.21427726745605 141.14285278320312 127.85713958740234
leaf_count=31 17 31 20 125 28 43
internal_value=0 0.000161348 -0.000241045 5.21591e-05 0.000700261 0.000363052
internal_weight=0 900.286 515.429 438.857 384.857 269
internal_count=295 278 176 156 102 71
is_linear=0
shrinkage=0.08


Tree=59
num_leaves=7
num_cat=0
split_feature=2 0 0 2 3 0
split_gain=0.0255432 0.0178624 0.0341635 0.0121792 0.0112978 0.00837222
threshold=50.280000000000008 1657935000000.0002 1658237400000.0002 56.925000000000004 0.92667470222180037 1657474200000.0002
decision_type=2 2 2 2 2 2
left_child=-1 5 3 -3 -4 -2
right_child=1 2 4 -5 -6 -7
leaf_value=0.0011351165128198058 -0.00036367019628228596 0.0025427013289458403 8.9215167690449423e-05 0.00042599047876178104 -0.00056306309797102369 -0.0017392670419818222
leaf_weight=109.78571128845215 53.285713195800781 41.142856597900391 394.85713195800781 30.142856597900391 298.35713386535645 60.428569793701172
leaf_count=32 25 27 112 16 65 18
internal_value=0 -0.000159177 -2.00289e-05 0.00164766 -0.000191523 -0.00109467
internal_weight=0 878.214 764.5 71.2857 693.214 113.714
internal_count=295 263 220 43 177 43
is_linear=0
shrinkage=0.08


Tree=60
num_leaves=7
num_cat=0
split_feature=0 1 0 3 3 2
split_gain=0.0138211 0.0179358 0.0195055 0.0143622 0.0133682 0.0120201
threshold=1657114200000.0002 21072.675000000007 1658885400000.0002 1.1381994824427648 0.81847663926127534 61.955000000000005
decision_type=2 2 2 2 2 2
left_child=-1 4 3 -3 -2 -4
right_child=1 2 5 -5 -6 -7
leaf_value=-0.0016948123422111255 0.0014987509284851677 -0.0013162728345143279 0.00012232475571732901 4.5073614463165222e-06 -7.7111261449153289e-05 -0.0006955248657915772
leaf_weight=49.285713195800781 53.214284896850586 218.5714225769043 320.35713386535645 69.428569793701172 97.714282989501953 179.42856597900391
leaf_count=21 32 63 87 27 27 38
internal_value=0 -0.000320413 -0.000473474 -0.00099787 0.000478505 -0.000171292
internal_weight=0 938.714 787.786 288 150.929 499.786
internal_count=295 274 215 90 59 125
is_linear=0
shrinkage=0.08


Tree=61
num_leaves=5
num_cat=0
split_feature=3 3 0 0
split_gain=0.0171088 0.0237235 0.0109979 0.0151306
threshold=1.3825211107830215 1.2698877087177556 1660080600000.0002 1659288600000.0002
decision_type=2 2 2 2
left_child=1 2 3 -1
right_child=-2 -3 -4 -5
leaf_value=5.490146600435691e-05 -0.001185004604495162 0.0014409896267789546 0.0006119775132922983 -0.00074637148674603303
leaf_weight=491.28570175170898 77.571426391601562 72.499998092651367 128.99999618530273 217.64285087585449
leaf_count=166 21 23 30 55
internal_value=0 5.26639e-05 -6.7458e-05 -0.000191091
internal_weight=0 910.429 837.929 708.929
internal_count=295 274 251 221
is_linear=0
shrinkage=0.08


Tree=62
num_leaves=6
num_cat=0
split_feature=3 3 2 2 0
split_gain=0.0150391 0.0293636 0.0127474 0.0172751 0.0048798
threshold=1.3559290980230225 1.2060425745369339 60.955000000000005 57.865000000000009 1659720600000.0002
decision_type=2 2 2 2 2
left_child=1 2 3 -1 -4
right_child=-2 -3 4 -5 -6
leaf_value=7.4475476030957648e-05 -0.0011411886506864075 0.0014898278314776079 0.0011139547651392646 -0.00078553428743885392 0.0002073368782878999
leaf_weight=455.21427345275879 68.499998092651367 86.571426391601562 66.499998092651367 222.5714225769043 88.642854690551758
leaf_count=137 19 30 17 67 25
internal_value=0 8.75457e-05 -5.82022e-05 -0.000207935 0.000595947
internal_weight=0 919.5 832.929 677.786 155.143
internal_count=295 276 246 204 42
is_linear=0
shrinkage=0.08


Tree=63
num_leaves=6
num_cat=0
split_feature=1 1 2 1 0
split_gain=0.0164493 0.0142133 0.0138161 0.0166125 0.0209406
threshold=23414.675000000003 23848.970000000005 49.090000000000011 19777.380000000005 1657056600000.0002
decision_type=2 2 2 2 2
left_child=2 -2 -1 -4 -5
right_child=1 -3 3 4 -6
leaf_value=-0.0009414986527463146 -0.0017603373530025834 -0.00023379141140413584 0.0026292898468495119 -0.0031357456743717196 0.0002344796575406307
leaf_weight=69.499998092651367 56.357141494750977 126.99999618530273 18.142856597900391 11.999999999999998 704.99998092651367
leaf_count=20 21 28 4 12 210
internal_value=0 -0.000702995 0.000136642 0.000238569 0.000178074
internal_weight=0 183.357 804.643 735.143 717
internal_count=295 49 246 226 222
is_linear=0
shrinkage=0.08


Tree=64
num_leaves=6
num_cat=0
split_feature=0 1 3 3 1
split_gain=0.0190519 0.0151696 0.0139457 0.0113877 0.0109743
threshold=1657013400000.0002 24065.450000000004 0.8729193709802584 0.77513026766600956 23504.665000000005
decision_type=2 2 2 2 2
left_child=-1 2 3 -2 -4
right_child=1 -3 4 -5 -6
leaf_value=-0.0021452053837912851 0.00030748714865082728 -0.00078354415477692528 0.00084047785244778799 -0.00052970715200099906 -5.3075131255146098e-05
leaf_weight=23.142856597900391 247.5714225769043 94.785711288452148 322.21427726745605 179.28570938110352 120.99999618530273
leaf_count=9 92 17 103 52 22
internal_value=0 0.000177518 0.000282216 -4.41457e-05 0.000596533
internal_weight=0 964.857 870.071 426.857 443.214
internal_count=295 286 269 144 125
is_linear=0
shrinkage=0.08


Tree=65
num_leaves=7
num_cat=0
split_feature=1 0 2 0 3 3
split_gain=0.0175371 0.0134517 0.0323198 0.0205211 0.0131291 0.0300341
threshold=19477.145000000004 1658899800000.0002 58.520000000000003 1659259800000.0002 0.66654816794354455 0.76729441046462055
decision_type=2 2 2 2 2 2
left_child=-1 4 -3 -4 -2 -6
right_child=1 2 3 -5 5 -7
leaf_value=0.0023260909447340027 -0.0017493179969489975 0.0021407964047986975 0.0010259195399334733 -0.00031853394844215686 0.0010962351188188125 -0.00060698093289719268
leaf_weight=19.142856597900391 43.285713195800781 48.285713195800781 91.714282989501953 349.71427536010742 81.499998092651367 354.35713386535645
leaf_count=5 15 20 21 81 32 121
internal_value=0 -0.000119109 0.000175746 -3.92009e-05 -0.00042047 -0.0002885
internal_weight=0 968.857 489.714 441.429 479.143 435.857
internal_count=295 290 122 102 168 153
is_linear=0
shrinkage=0.08


Tree=66
num_leaves=9
num_cat=0
split_feature=0 0 0 2 0 0 0 2
split_gain=0.0149868 0.0209887 0.0268498 0.0186017 0.0133075 0.0151844 0.0132244 0.00264188
threshold=1658064600000.0002 1657431000000.0002 1657704600000.0002 61.535000000000004 1658136600000.0002 1658885400000.0002 1659720600000.0002 50.985000000000007
decision_type=2 2 2 2 2 2 2 2
left_child=1 7 -3 4 -2 -6 -5 -1
right_child=3 2 -4 6 5 -7 -8 -9
leaf_value=0.00060605035152014851 0.0019543908690877964 -0.0024584820289205687 -0.00018478959747783192 0.0002178252465071046 -0.00014085499809730919 0.00073999805130809564 -0.001184554706520054 -9.6242169108344181e-05
leaf_weight=61.428569793701172 35.214284896850586 59.428569793701172 75.428569793701172 83.642854690551758 226.5714225769043 280.07142066955566 88.642854690551758 77.571426391601562
leaf_count=19 14 17 33 20 71 75 25 21
internal_value=0 -0.00047572 -0.00118676 0.000220374 0.0004506 0.000346079 -0.000503714 0.000214123
internal_weight=0 273.857 134.857 714.143 541.857 506.643 172.286 139
internal_count=295 90 50 205 160 146 45 40
is_linear=0
shrinkage=0.08


Tree=67
num_leaves=5
num_cat=0
split_feature=0 2 1 2
split_gain=0.0251914 0.0122448 0.0130587 0.0135526
threshold=1657027800000.0002 48.795000000000009 20475.225000000002 61.185000000000009
decision_type=2 2 2 2
left_child=-1 -2 -3 -4
right_child=1 2 3 -5
leaf_value=0.0017621253885476351 0.0011296261515962821 -0.0012387528620846006 0.00010559805329941808 -0.00063051389077307647
leaf_weight=48.357141494750977 48.357141494750977 68.499998092651367 605.14284133911133 217.64285087585449
leaf_count=13 13 19 195 55
internal_value=0 -0.000110206 -0.000177473 -8.91179e-05
internal_weight=0 939.643 891.286 822.786
internal_count=295 282 269 250
is_linear=0
shrinkage=0.08


Tree=68
num_leaves=10
num_cat=0
split_feature=3 2 0 0 0 1 0 3 0
split_gain=0.025607 0.0302762 0.0202751 0.0376313 0.0191228 0.0154847 0.0149054 0.0119396 0.00614356
threshold=0.79481314347456899 62.295000000000009 1659821400000.0002 1658727000000.0002 1658165400000.0002 22320.050000000007 1657877400000.0002 0.87040135306987809 1657258200000.0002
decision_type=2 2 2 2 2 2 2 2 2
left_child=1 2 3 -1 6 -6 8 -7 -2
right_child=4 -3 -4 -5 5 7 -8 -9 -10
leaf_value=0.0012491548102539067 -0.00090957914344092004 -0.0010610747515257815 0.002005768024629056 -0.0009281219824483467 0.0012969624546287895 -0.0011337711269635415 -0.0016276496121885951 0.00010383251871352143 3.1859843149988231e-05
leaf_weight=143.99999618530273 80.571426391601562 63.499998092651367 74.499998092651367 78.499998092651367 55.357141494750977 63.428569793701172 95.714282989501953 233.71427917480469 98.714282989501953
leaf_count=45 24 14 25 29 20 21 25 64 28
internal_value=0 0.000524472 0.000863469 0.000480992 -0.000321563 6.85101e-05 -0.000821565 -0.000160348 -0.000391225
internal_weight=0 360.5 297 222.5 627.5 352.5 275 297.143 179.286
internal_count=295 113 99 74 182 105 77 85 52
is_linear=0
shrinkage=0.08


Tree=69
num_leaves=8
num_cat=0
split_feature=3 1 1 0 1 1 2
split_gain=0.0123075 0.0129254 0.0170534 0.0108623 0.00763923 0.00850936 0.0139618
threshold=0.71962296881308563 19952.975000000002 20475.225000000002 1657877400000.0002 20401.320000000003 21510.800000000003 60.180000000000007
decision_type=2 2 2 2 2 2 2
left_child=4 -2 -3 -4 -1 -6 -7
right_child=1 2 3 -5 5 6 -8
leaf_value=-0.0020217118059584292 0.0010233009597114427 -0.0016396074240317463 0.00074497989365871387 -0.00033535553976904241 0.0011818816582724542 -0.00068048330601734358 0.00082183464118507998
leaf_weight=8.0714282989501935 47.285713195800781 59.428569793701172 66.499998092651367 571.07141304016113 75.428569793701172 71.499998092651367 88.714282989501953
leaf_count=1 19 17 17 168 33 22 18
internal_value=0 -0.000256653 -0.000343487 -0.000222674 0.000398349 0.000481243 0.000151384
internal_weight=0 744.286 697 637.571 243.714 235.643 160.214
internal_count=295 221 202 185 74 73 40
is_linear=0
shrinkage=0.08


Tree=70
num_leaves=7
num_cat=0
split_feature=0 0 1 2 1 1
split_gain=0.0209237 0.0184124 0.0139159 0.0105655 0.00986136 0.00206464
threshold=1659231000000.0002 1658914200000.0002 22695.590000000004 59.735000000000007 21331.340000000004 23711.395
decision_type=2 2 2 2 2 2
left_child=1 2 4 -2 -1 -5
right_child=3 -3 -4 5 -6 -7
leaf_value=-0.00012833366552563979 0.00013695174116794905 0.0012325007905458357 -0.00088102231279672219 -0.00063186881516248412 0.0006030844685022738 -0.0011085118784171716
leaf_weight=266.78570747375488 91.571426391601562 93.642854690551758 91.642854690551758 112.92856788635254 211.4999942779541 119.92856788635254
leaf_count=90 35 30 28 21 63 28
internal_value=0 0.000192881 2.20648e-05 -0.000591062 0.000195103 -0.000877355
internal_weight=0 663.571 569.929 324.429 478.286 232.857
internal_count=295 211 181 84 153 49
is_linear=0
shrinkage=0.08


Tree=71
num_leaves=6
num_cat=0
split_feature=0 0 2 2 2
split_gain=0.0112761 0.0110186 0.027162 0.0236292 0.0115419
threshold=1660080600000.0002 1659187800000.0002 59.545000000000009 57.285000000000004 60.110000000000007
decision_type=2 2 2 2 2
left_child=1 2 3 -1 -3
right_child=-2 4 -4 -5 -6
leaf_value=0.00027382799863787279 0.00095630030522245862 0.00043894871354883762 0.0014435037219548785 -0.00096679172941067286 -0.00086325482104104509
leaf_weight=461.14284515380859 100.71428298950195 63.428569793701172 98.785711288452148 124.85713958740234 139.07142448425293
leaf_count=150 30 21 21 40 33
internal_value=0 6.30556e-05 0.00021636 9.49313e-06 -0.000455369
internal_weight=0 887.286 684.786 586 202.5
internal_count=295 265 211 190 54
is_linear=0
shrinkage=0.08


Tree=72
num_leaves=5
num_cat=0
split_feature=1 1 1 0
split_gain=0.0257852 0.0110306 0.0166192 0.0172642
threshold=19477.145000000004 19705.455000000005 19764.985000000004 1657157400000.0002
decision_type=2 2 2 2
left_child=-1 -2 -3 -4
right_child=1 2 3 -5
leaf_value=0.0020277022879384345 -0.0020443488741397568 0.0021364067791691619 -0.0020943481605869745 -0.00017996719051534098
leaf_weight=33.285713195800781 21.142856597900391 19.142856597900391 31.214284896850586 883.21426200866699
leaf_count=5 7 5 10 268
internal_value=0 -0.0002374 -0.000196478 -0.000245315
internal_weight=0 954.714 933.571 914.429
internal_count=295 290 283 278
is_linear=0
shrinkage=0.08


Tree=73
num_leaves=7
num_cat=0
split_feature=0 0 1 3 1 3
split_gain=0.013208 0.0275902 0.0200611 0.0214051 0.00660597 0.00614908
threshold=1657287000000.0002 1658050200000.0002 21510.800000000003 0.74572447478182891 20746.390000000003 0.91533059325520016
decision_type=2 2 2 2 2 2
left_child=5 4 -3 -4 -2 -1
right_child=1 2 3 -5 -6 -7
leaf_value=0.0013845494916507228 -0.00042968580992469487 0.0013354633635505762 -0.0009515006121422132 0.00025624303346136678 -0.0012575508910669493 0.00028879578929398125
leaf_weight=52.357141494750977 120.85713958740234 79.571426391601562 122.85713958740234 398.71427536010742 125.99999618530273 87.642854690551758
leaf_count=17 36 23 38 130 27 24
internal_value=0 -0.000140151 0.000152266 -2.82433e-05 -0.000852242 0.000698585
internal_weight=0 848 601.143 521.571 246.857 140
internal_count=295 254 191 168 63 41
is_linear=0
shrinkage=0.08


Tree=74
num_leaves=8
num_cat=0
split_feature=3 1 0 3 0 0 3
split_gain=0.00815571 0.0130068 0.0252302 0.00977997 0.00645086 0.0179838 0.00438669
threshold=0.74090676589274185 20681.770000000004 1658885400000.0002 0.76358868030097493 1659720600000.0002 1659087000000.0002 0.6034921361922434
decision_type=2 2 2 2 2 2 2
left_child=1 -1 -3 -2 5 -5 -4
right_child=3 2 6 4 -6 -7 -8
leaf_value=0.00074504465624338683 0.0015370274023594091 -0.0017923784792369898 0.00037788312880642259 -8.545134263631249e-05 -0.00067809264180457231 0.0010452483942535932 -0.00045610142229387705
leaf_weight=52.357141494750977 29.142856597900391 81.571426391601562 75.571426391601562 480.42855834960938 71.499998092651367 110.78571128845215 86.642854690551758
leaf_count=17 15 25 19 141 22 33 23
internal_value=0 -0.000398994 -0.000644696 0.000102702 3.96275e-05 0.000126427 -6.75697e-05
internal_weight=0 296.143 243.786 691.857 662.714 591.214 162.214
internal_count=295 84 67 211 196 174 42
is_linear=0
shrinkage=0.08


Tree=75
num_leaves=8
num_cat=0
split_feature=0 0 1 3 0 2 3
split_gain=0.0133042 0.0178909 0.012453 0.0134699 0.011396 0.0145914 0.00693501
threshold=1658885400000.0002 1659173400000.0002 19952.975000000002 1.2773347917656228 1659619800000.0002 61.595000000000006 0.66654816794354455
decision_type=2 2 2 2 2 2 2
left_child=2 -2 -1 6 -3 -6 -4
right_child=1 4 3 -5 5 -7 -8
leaf_value=0.00069652925891670479 0.0014024858263320752 -0.00049370101050119912 -0.0021476329788125488 0.00065744524051855005 0.0012474173789270866 -5.4623347568861617e-08 -0.0004960636960669127
leaf_weight=81.571426391601562 88.642854690551758 122.92856788635254 17.071428298950195 67.428569793701172 92.642854690551758 170.35713768005371 347.35713386535645
leaf_count=25 25 31 10 25 29 36 114
internal_value=0 0.000377573 -0.000210014 -0.000381246 0.000142164 0.000439373 -0.00057343
internal_weight=0 474.571 513.429 431.857 385.929 263 364.429
internal_count=295 121 174 149 96 65 124
is_linear=0
shrinkage=0.08


Tree=76
num_leaves=7
num_cat=0
split_feature=1 1 0 0 3 1
split_gain=0.0155801 0.012896 0.0129699 0.0507417 0.0225077 0.00320307
threshold=24251.490000000002 20475.225000000002 1658669400000.0002 1658827800000.0002 0.66525788249358386 19980.890000000003
decision_type=2 2 2 2 2 2
left_child=1 5 4 -4 -3 -1
right_child=-2 2 3 -5 -6 -7
leaf_value=-0.000176661700337253 -0.00092978716633385582 -0.0024150368660725797 -0.0022228404175659677 0.00036154513356966976 0.00085820110779376735 -0.00096288381394720205
leaf_weight=73.499998092651367 86.714282989501953 14.071428298950194 55.428569793701172 395.92856025695801 301.92856407165527 60.428569793701172
leaf_count=24 16 7 13 106 111 18
internal_value=0 0.000192946 0.000319368 4.41716e-05 0.000712444 -0.000531405
internal_weight=0 901.286 767.357 451.357 316 133.929
internal_count=295 279 237 119 118 42
is_linear=0
shrinkage=0.08


Tree=77
num_leaves=5
num_cat=0
split_feature=1 0 0 1
split_gain=0.0179129 0.0262423 0.0187649 0.0148122
threshold=19705.455000000005 1657445400000.0002 1657647000000.0002 20622.980000000003
decision_type=2 2 2 2
left_child=-1 -2 -3 -4
right_child=1 2 3 -5
leaf_value=-0.0021218100711720396 0.00092751914207586943 -0.0024860670177463406 0.001008649147020355 -0.00035857844164481427
leaf_weight=31.214284896850586 120.85713958740234 25.142856597900391 54.357141494750977 756.42855072021484
leaf_count=10 36 11 19 219
internal_value=0 -0.000174356 -0.000333663 -0.000266916
internal_weight=0 956.786 835.929 810.786
internal_count=295 285 249 238
is_linear=0
shrinkage=0.08


Tree=78
num_leaves=9
num_cat=0
split_feature=3 1 0 1 2 3 0 1
split_gain=0.00919378 0.0164449 0.0263674 0.0226845 0.0142478 0.0183844 0.014001 0.0133025
threshold=0.81061615195296566 20037.165000000005 1658194200000.0002 22730.665000000005 49.855000000000011 0.74218346264849189 1657287000000.0002 20789.140000000003
decision_type=2 2 2 2 2 2 2 2
left_child=4 -2 6 -4 -1 7 -3 -6
right_child=1 2 3 -5 5 -7 -8 -9
leaf_value=-0.0023139949952770355 0.0014508025425983564 -6.5216426838135035e-05 0.0016787650190634715 -2.867101919061791e-05 0.0014775887949465564 0.0014597670286677165 -0.0017321996220272654 7.8913119516419281e-06
leaf_weight=11.071428298950194 47.285713195800781 53.357141494750977 58.357141494750977 339.57141876220703 47.285713195800781 112.78571128845215 81.499998092651367 236.78570747375488
leaf_count=4 19 18 23 85 19 35 32 60
internal_value=0 2.09979e-05 -0.0001059 0.000221728 0.000516657 0.000595626 -0.00107265 0.000252533
internal_weight=0 580.071 532.786 397.929 407.929 396.857 134.857 284.071
internal_count=295 177 158 108 118 114 50 79
is_linear=0
shrinkage=0.08


Tree=79
num_leaves=10
num_cat=0
split_feature=3 3 1 2 3 0 1 3 3
split_gain=0.015326 0.00940585 0.00726788 0.0116079 0.010934 0.0103778 0.0068901 0.00510506 0.00434051
threshold=0.73870516155150556 0.71017362013512619 22773.960000000003 54.725000000000009 1.1015951703080733 1658482200000.0002 22932.265000000003 0.93099071368839181 0.62002568951737069
decision_type=2 2 2 2 2 2 2 2 2
left_child=1 8 3 7 -5 -4 -7 -2 -1
right_child=2 -3 5 4 -6 6 -8 -9 -10
leaf_value=0.00060328695109205437 -0.00068228079490699684 0.0011944078455413275 0.0003374289409232354 0.0014194072442762818 -0.00040237869044204187 -0.0015278168016356496 -0.00051813727385877344 1.0710030727194215e-05 -0.00015575442432545924
leaf_weight=86.642854690551758 103.78571128845215 83.714282989501953 72.499998092651367 61.285713195800781 32.142856597900391 56.428569793701172 185.28570938110352 197.4999942779541 108.71428298950195
leaf_count=23 26 13 23 33 18 14 58 49 38
internal_value=0 0.000484918 -0.000214961 1.35795e-05 0.000792646 -0.000502053 -0.000753849 -0.000228009 0.000180888
internal_weight=0 279.071 708.929 394.714 93.4286 314.214 241.714 301.286 195.357
internal_count=295 74 221 126 51 95 72 75 61
is_linear=0
shrinkage=0.08


Tree=80
num_leaves=7
num_cat=0
split_feature=0 3 3 3 3 2
split_gain=0.0101247 0.00965447 0.00731874 0.0072319 0.0127844 0.00863076
threshold=1656999000000.0002 0.70588957937999586 0.62002568951737069 0.79888251343899375 0.8640377226163255 58.785000000000004
decision_type=2 2 2 2 2 2
left_child=-1 2 -2 5 -5 -3
right_child=1 3 -4 4 -6 -7
leaf_value=-0.0011277392413204179 0.00032638280614647011 0.0013389585831343116 -0.00069909340518956606 -0.00063654770668911977 0.00045982709417598759 0.00034952967708046131
leaf_weight=31.214284896850586 87.642854690551758 111.78571128845215 90.571426391601562 79.499998092651367 473.35713005065918 113.92856788635254
leaf_count=10 24 34 34 30 141 22
internal_value=0 0.000336378 -0.000194781 0.00045796 0.00030217 0.000839547
internal_weight=0 956.786 178.214 778.571 552.857 225.714
internal_count=295 285 58 227 171 56
is_linear=0
shrinkage=0.08


Tree=81
num_leaves=5
num_cat=0
split_feature=0 3 3 0
split_gain=0.0152719 0.00995547 0.0089443 0.00922733
threshold=1660037400000.0002 0.5654440908541648 0.65130592401081355 1656970200000.0002
decision_type=2 2 2 2
left_child=1 -1 -3 -4
right_child=-2 2 3 -5
leaf_value=-0.00095186033126472107 0.001190193625543446 0.0010818043497234618 0.0012764529813605238 -4.6948152611567784e-05
leaf_weight=64.499998092651367 75.499998092651367 53.357141494750977 35.285713195800781 759.35712242126465
leaf_count=15 26 18 7 229
internal_value=0 6.26536e-06 7.91417e-05 1.18168e-05
internal_weight=0 912.5 848 794.643
internal_count=295 269 254 236
is_linear=0
shrinkage=0.08


Tree=82
num_leaves=8
num_cat=0
split_feature=0 3 0 0 3 2 1
split_gain=0.0189926 0.0161457 0.0117263 0.0231629 0.00976163 0.00567033 0.000248793
threshold=1656999000000.0002 0.76358868030097493 1659504600000.0002 1658827800000.0002 0.70588957937999586 54.595000000000006 23808.840000000004
decision_type=2 2 2 2 2 2 2
left_child=-1 4 3 -3 5 -2 -4
right_child=1 2 6 -5 -6 -7 -8
leaf_value=-0.0016009124775331039 0.00076269867472724036 -0.00037412266125735313 -0.0010487729340876819 0.0010619294197300607 0.0011813385200522273 -0.00012559474481684303 -0.000839056863249881
leaf_weight=55.428569793701172 65.357141494750977 399.78570365905762 64.428569793701172 87.642854690551758 77.499998092651367 155.21428108215332 82.642854690551758
leaf_count=13 30 124 22 24 28 35 19
internal_value=0 -7.66739e-05 -0.000304825 -0.000115911 0.000408987 0.000137614 -0.000930929
internal_weight=0 932.571 634.5 487.429 298.071 220.571 147.071
internal_count=295 282 189 148 93 65 41
is_linear=0
shrinkage=0.08


Tree=83
num_leaves=8
num_cat=0
split_feature=3 2 3 0 2 0 0
split_gain=0.0204462 0.0280859 0.0231324 0.0190512 0.011964 0.0114222 0.0027325
threshold=0.79330877262738275 48.585000000000008 0.66525788249358386 1659720600000.0002 59.120000000000012 1658770200000.0002 1659850200000.0002
decision_type=2 2 2 2 2 2 2
left_child=2 -2 6 4 -3 -4 -1
right_child=1 3 5 -5 -6 -7 -8
leaf_value=-0.00044771986665904581 0.0022328828686044079 -0.00022472475846712918 0.0018375480510401353 -0.0013481019285378098 0.00079357801761764635 0.00065616097447406018 0.0002283795713375003
leaf_weight=74.499998092651367 31.214284896850586 418.92856025695801 95.642854690551758 83.642854690551758 89.642854690551758 115.78571128845215 78.642854690551758
leaf_count=25 10 129 32 20 26 38 15
internal_value=0 -0.000105972 0.000648234 -0.000229248 -4.52346e-05 0.00119058 -0.000100525
internal_weight=0 623.429 364.571 592.214 508.571 211.429 153.143
internal_count=295 185 110 175 155 70 40
is_linear=0
shrinkage=0.08


Tree=84
num_leaves=6
num_cat=0
split_feature=3 3 3 2 1
split_gain=0.00915011 0.0160206 0.0125063 0.0124497 0.0100132
threshold=0.71962296881308563 0.76051394373015613 0.78998350407967821 54.405000000000008 20037.165000000005
decision_type=2 2 2 2 2
left_child=3 -2 -3 -1 -4
right_child=1 2 4 -5 -6
leaf_value=0.00091800739675807852 -0.0019837428790492255 0.0006157934388415949 0.00043515405397425686 -0.00028370353376878005 -0.00055819698874037425
leaf_weight=87.571426391601562 39.214284896850586 80.571426391601562 73.499998092651367 149.14285278320312 557.99998474121094
leaf_count=31 18 24 24 36 162
internal_value=0 -0.000409519 -0.000322825 0.000160864 -0.000442581
internal_weight=0 751.286 712.071 236.714 631.5
internal_count=295 228 210 67 186
is_linear=0
shrinkage=0.08


Tree=85
num_leaves=9
num_cat=0
split_feature=3 2 0 0 1 3 3 1
split_gain=0.0119826 0.0129018 0.010218 0.0155234 0.0148342 0.00830336 0.0105983 0.0173725
threshold=0.922439673361935 49.945000000000007 1658669400000.0002 1658093400000.0002 23174.125000000004 0.98143896804777653 1.0576526889878664 22086.480000000003
decision_type=2 2 2 2 2 2 2 2
left_child=1 -1 3 -3 -4 -2 -7 -8
right_child=5 2 4 -5 -6 6 7 -9
leaf_value=-0.00078738368020203273 -0.0008988318725585057 0.00038519302488812095 -0.00040901295837832662 0.0018555181686597949 0.00073167593387146572 0.0007225215041144899 0.00031254383144008408 -0.0010241367693122438
leaf_weight=60.499998092651367 96.714282989501953 135.92856788635254 149.99999618530273 69.428569793701172 142.07142448425293 83.642854690551758 131.92856788635254 117.78571128845215
leaf_count=11 26 44 51 27 36 20 40 40
internal_value=0 0.000315715 0.00044988 0.000882291 0.000145849 -0.000246218 -5.68803e-05 -0.000317944
internal_weight=0 557.929 497.429 205.357 292.071 430.071 333.357 249.714
internal_count=295 169 158 71 87 126 100 80
is_linear=0
shrinkage=0.08


Tree=86
num_leaves=6
num_cat=0
split_feature=1 0 0 2 0
split_gain=0.0103504 0.0094378 0.0127258 0.0281575 0.0169113
threshold=19477.145000000004 1660080600000.0002 1658669400000.0002 59.475000000000001 1657920600000.0002
decision_type=2 2 2 2 2
left_child=-1 2 4 -4 -2
right_child=1 -3 3 -5 -6
leaf_value=0.0014620209481404094 -0.00018341193639347643 0.00071787099543733175 -0.0012053988939499641 0.00020000734488438224 0.00080208191703355961
leaf_weight=35.285713195800781 249.78570747375488 123.92856788635254 154.07142448425293 223.71427917480469 201.21428108215332
leaf_count=7 73 32 48 54 81
internal_value=0 6.67234e-05 -3.06429e-05 -0.000373156 0.000256268
internal_weight=0 952.714 828.786 377.786 451
internal_count=295 288 256 102 154
is_linear=0
shrinkage=0.08


Tree=87
num_leaves=7
num_cat=0
split_feature=2 0 3 3 2 3
split_gain=0.0131099 0.00950345 0.0186169 0.0143818 0.00999962 0.00588386
threshold=48.585000000000008 1658885400000.0002 0.67212482622274072 0.68182708775207113 58.655000000000008 0.84152629813708024
decision_type=2 2 2 2 2 2
left_child=-1 2 -2 -4 -3 -6
right_child=1 4 3 -5 5 -7
leaf_value=0.0015978187567335638 -0.0020239456800002493 0.00084354497820139087 0.001711579924264516 -0.00041995008156742056 0.00011474463925405354 -0.00057502732077107353
leaf_weight=25.142856597900391 45.285713195800781 79.571426391601562 21.142856597900391 484.42855834960938 202.4999942779541 129.92856788635254
leaf_count=11 17 23 7 145 54 38
internal_value=0 -0.000252642 -0.000470002 -0.00033081 3.79742e-05 -0.00015485
internal_weight=0 962.857 550.857 505.571 412 332.429
internal_count=295 284 169 152 115 92
is_linear=0
shrinkage=0.08


Tree=88
num_leaves=7
num_cat=0
split_feature=0 3 0 2 1 2
split_gain=0.0234292 0.0139532 0.0136155 0.0124049 0.00792012 0.00246016
threshold=1657647000000.0002 1.0576526889878664 1660080600000.0002 57.285000000000004 21034.675000000007 51.455000000000005
decision_type=2 2 2 2 2 2
left_child=5 2 4 -3 -2 -1
right_child=1 3 -4 -5 -6 -7
leaf_value=-0.0012928298795876507 0.0010807328075735745 0.00047359104544920108 0.0012966308947978224 -0.00095552980672190639 2.7715511227187781e-05 -0.00068791269207076761
leaf_weight=73.499998092651367 50.285713195800781 55.285713195800781 71.499998092651367 130.92856788635254 502.71427154541016 103.78571128845215
leaf_count=24 22 27 22 39 135 26
internal_value=0 7.65549e-05 0.000257786 -0.000531234 0.000123469 -0.000938702
internal_weight=0 810.714 624.5 186.214 553 177.286
internal_count=295 245 179 66 157 50
is_linear=0
shrinkage=0.08


Tree=89
num_leaves=8
num_cat=0
split_feature=3 2 1 0 0 2 2
split_gain=0.0131677 0.0112253 0.0165419 0.0246514 0.0106662 0.0119487 0.00851168
threshold=0.8828640207457995 49.565000000000005 21034.675000000007 1658107800000.0002 1659720600000.0002 59.235000000000007 57.285000000000004
decision_type=2 2 2 2 2 2 2
left_child=1 -1 -3 -4 5 6 -2
right_child=4 2 3 -5 -6 -7 -8
leaf_value=-0.0018434149403217623 0.00037774707538452913 0.00046857061680937085 -0.001994195183802889 -0.00032644606323212796 -0.00076887556955362814 0.0011325072680004632 -0.0005368854154373505
leaf_weight=35.285713195800781 181.21428108215332 116.78571128845215 68.571426391601562 328.28570556640625 71.571426391601562 84.642854690551758 101.64285469055176
leaf_count=7 61 39 12 102 15 21 38
internal_value=0 -0.00046315 -0.00036833 -0.00061461 0.000124608 0.000298616 4.90799e-05
internal_weight=0 548.929 513.643 396.857 439.071 367.5 282.857
internal_count=295 160 153 114 135 120 99
is_linear=0
shrinkage=0.08


Tree=90
num_leaves=8
num_cat=0
split_feature=0 0 3 3 0 0 0
split_gain=0.0247277 0.0205525 0.00861961 0.0180185 0.00708 0.00690703 0.00697623
threshold=1659187800000.0002 1660080600000.0002 0.67020833011074366 0.87040135306987809 1657287000000.0002 1658899800000.0002 1658511000000.0002
decision_type=2 2 2 2 2 2 2
left_child=4 2 -2 -4 -1 6 -6
right_child=1 -3 3 -5 5 -7 -8
leaf_value=0.00093781431446685569 -0.00015528612550838155 0.00051066026979963426 -0.0018883653820672378 -0.00042478642991356386 0.00017897732406333851 0.00079704522659583446 -0.00066949084217477861
leaf_weight=88.571426391601562 79.642854690551758 90.642854690551758 103.78571128845215 111.85713958740234 347.35713386535645 90.642854690551758 75.499998092651367
leaf_count=32 16 27 26 27 114 27 26
internal_value=0 -0.000543055 -0.000866511 -0.00112919 0.000277264 0.000163328 2.74856e-05
internal_weight=0 385.929 295.286 215.643 602.071 513.5 422.857
internal_count=295 96 69 53 199 167 140
is_linear=0
shrinkage=0.08


Tree=91
num_leaves=9
num_cat=0
split_feature=3 3 2 0 1 2 0 0
split_gain=0.00962176 0.0175527 0.0143026 0.0141586 0.0184749 0.0109677 0.00732984 0.00782873
threshold=1.0790193452144692 0.76051394373015613 57.285000000000004 1657704600000.0002 21510.800000000003 51.425000000000004 1658079000000.0002 1658770200000.0002
decision_type=2 2 2 2 2 2 2 2
left_child=1 3 5 -1 -5 -2 -3 -8
right_child=2 6 -4 4 -6 -7 7 -9
leaf_value=-0.0013310099112478161 -0.00058937391001858503 -1.0094854005440704e-05 -0.0009543294540080529 0.0014127015029622068 -0.0003933087693509344 0.00074577328966247882 0.0014256596134836299 0.00047210728745364312
leaf_weight=67.499998092651367 71.499998092651367 123.85713958740234 144.07142448425293 46.285713195800781 167.21428108215332 87.642854690551758 75.428569793701172 204.4999942779541
leaf_count=18 22 39 38 18 47 24 33 56
internal_value=0 0.000164444 -0.000376863 -0.000321075 -1.77493e-06 0.000145916 0.000502324 0.000729048
internal_weight=0 684.786 303.214 281 213.5 159.143 403.786 279.929
internal_count=295 211 84 83 65 46 128 89
is_linear=0
shrinkage=0.08


Tree=92
num_leaves=7
num_cat=0
split_feature=0 0 1 3 0 1
split_gain=0.013078 0.0206681 0.0215549 0.0100244 0.00705682 0.0013044
threshold=1657373400000.0002 1657675800000.0002 21355.350000000002 0.76990391848765383 1657157400000.0002 21010.570000000003
decision_type=2 2 2 2 2 2
left_child=4 -2 5 -4 -1 -3
right_child=1 2 3 -5 -6 -7
leaf_value=0.00037345835578653903 -0.0011487263642858813 0.0010756634893864701 -0.00056585533699890836 0.00015956210714758472 0.0015111137797547683 0.00065578014949401755
leaf_weight=77.571426391601562 82.642854690551758 116.78571128845215 177.21428108215332 390.71427536010742 63.428569793701172 79.642854690551758
leaf_count=21 19 39 57 122 21 16
internal_value=0 5.31073e-05 0.00018305 -6.67944e-05 0.00088523 0.00090542
internal_weight=0 847 764.357 567.929 141 196.429
internal_count=295 253 234 179 42 55
is_linear=0
shrinkage=0.08


Tree=93
num_leaves=6
num_cat=0
split_feature=0 0 2 1 1
split_gain=0.0147078 0.00908373 0.00897711 0.0161495 0.00587086
threshold=1660080600000.0002 1657243800000.0002 59.050000000000004 23335.555000000004 20501.815000000006
decision_type=2 2 2 2 2
left_child=1 -1 4 -4 -3
right_child=-2 2 3 -5 -6
leaf_value=0.00056338907551840281 0.00069607152724037076 0.00016286555102164164 0.00077130535331993561 -0.00060016374867456171 -0.00057072582465282596
leaf_weight=91.642854690551758 140.07142448425293 82.571426391601562 120.92856788635254 100.71428298950195 452.0714168548584
leaf_count=28 34 26 29 30 148
internal_value=0 -0.000188816 -0.000279964 0.000148111 -0.000457428
internal_weight=0 847.929 756.286 221.643 534.643
internal_count=295 261 233 59 174
is_linear=0
shrinkage=0.08


Tree=94
num_leaves=6
num_cat=0
split_feature=0 3 2 0 1
split_gain=0.0145428 0.0106297 0.0121945 0.0114373 0.0150936
threshold=1660095000000.0002 0.73673108211219507 56.195000000000007 1659504600000.0002 21580.405000000002
decision_type=2 2 2 2 2
left_child=1 2 -1 4 -3
right_child=-2 3 -4 -5 -6
leaf_value=0.0011145205441566493 0.00084711488623872514 -0.00056621834094615234 -8.9858134683803856e-05 -0.00088016793046473212 0.00032167651686916673
leaf_weight=88.571426391601562 120.92856788635254 220.4999942779541 137.07142448425293 145.14285278320312 275.78570747375488
leaf_count=32 29 72 31 32 99
internal_value=0 -8.93695e-05 0.000382896 -0.000255504 -7.28156e-05
internal_weight=0 867.071 225.643 641.429 496.286
internal_count=295 266 63 203 171
is_linear=0
shrinkage=0.08


Tree=95
num_leaves=5
num_cat=0
split_feature=3 3 3 3
split_gain=0.0193387 0.0288925 0.00885801 0.0156753
threshold=0.51497058664091855 0.67020833011074366 0.71464320307384543 1.3528551443338126
decision_type=2 2 2 2
left_child=-1 -2 -3 -4
right_child=1 2 3 -5
leaf_value=-0.0015342868339969136 0.0012978068960060258 -0.00066789079696599361 0.00022460090736158237 -0.0010752879163135191
leaf_weight=44.357141494750977 126.92856788635254 109.85713958740234 641.42855453491211 65.428569793701172
leaf_count=9 35 25 203 23
internal_value=0 0.000174925 4.14236e-07 0.00010428
internal_weight=0 943.643 816.714 706.857
internal_count=295 286 251 226
is_linear=0
shrinkage=0.08


Tree=96
num_leaves=8
num_cat=0
split_feature=0 0 2 0 3 1 3
split_gain=0.0107287 0.0395001 0.0137359 0.0184776 0.0119719 0.014494 0.00867088
threshold=1658885400000.0002 1658655000000.0002 57.285000000000004 1658064600000.0002 0.55482243343321469 24180.435000000001 0.70276988193016054
decision_type=2 2 2 2 2 2 2
left_child=1 2 3 -1 -2 6 -6
right_child=4 -3 -4 -5 5 -7 -8
leaf_value=8.8327066798455923e-05 -0.00068386311096348064 -0.0019469249448396196 -0.00079005100157639575 0.0015576186074870502 0.0020064464729022372 -0.00032537887404342035 0.00068287754620886517
leaf_weight=338.42856216430664 55.428569793701172 66.499998092651367 85.499998092651367 65.357141494750977 36.214284896850586 87.714282989501953 252.85713577270508
leaf_count=98 13 17 36 30 15 17 69
internal_value=0 -0.000117538 0.000131098 0.000326148 0.000413884 0.000575372 0.000848692
internal_weight=0 555.786 489.286 403.786 432.214 376.786 289.071
internal_count=295 181 164 128 114 101 84
is_linear=0
shrinkage=0.08


Tree=97
num_leaves=5
num_cat=0
split_feature=0 0 0 0
split_gain=0.00740628 0.0176142 0.0164592 0.0127111
threshold=1656955800000.0002 1656999000000.0002 1657229400000.0002 1658842200000.0002
decision_type=2 2 2 2
left_child=-1 -2 -3 -4
right_child=1 2 3 -5
leaf_value=0.00091568623838812323 -0.0023624555489489981 0.0018438414434609029 -0.00039643673073575458 0.00020924591398793497
leaf_weight=50.428569793701172 21.142856597900391 29.142856597900391 435.92856025695801 451.35713005065918
leaf_count=8 7 15 146 119
internal_value=0 -7.95542e-05 -2.68855e-05 -8.83295e-05
internal_weight=0 937.571 916.429 887.286
internal_count=295 287 280 265
is_linear=0
shrinkage=0.08


Tree=98
num_leaves=7
num_cat=0
split_feature=1 2 2 0 0 3
split_gain=0.0140381 0.015676 0.00886597 0.00646478 0.0154218 0.00431197
threshold=20200.660000000003 59.545000000000009 62.295000000000009 1657445400000.0002 1657906200000.0002 0.948270201134366
decision_type=2 2 2 2 2 2
left_child=-1 3 5 -2 -5 -3
right_child=1 2 -4 4 -6 -7
leaf_value=0.00092406549321397591 0.00034679181779762611 0.0013427676971537929 -9.221789230051359e-05 -0.0014237553378067672 -0.00017940109315034308 0.00050579508430550276
leaf_weight=112.78571128845215 98.714282989501953 68.499998092651367 101.78571128845215 74.571426391601562 438.92856025695801 92.714282989501953
leaf_count=35 28 19 24 18 149 22
internal_value=0 -2.42168e-05 0.000492348 -0.000246127 -0.000360109 0.000861425
internal_weight=0 875.214 263 612.214 513.5 161.214
internal_count=295 260 65 195 167 41
is_linear=0
shrinkage=0.08


Tree=99
num_leaves=5
num_cat=0
split_feature=2 2 1 0
split_gain=0.00900785 0.0170649 0.00618899 0.0097929
threshold=50.165000000000006 51.265000000000008 23916.425000000003 1659821400000.0002
decision_type=2 2 2 2
left_child=-1 -2 3 -3
right_child=1 2 -4 -5
leaf_value=0.00061060050061363994 -0.0014459928222044474 -4.8672958036292175e-05 -0.00055936553009719556 0.00095345106979243129
leaf_weight=116.85713958740234 59.428569793701172 617.28569793701172 124.99999618530273 69.428569793701172
leaf_count=32 17 193 26 27
internal_value=0 -0.000137408 -4.16022e-05 5.26443e-05
internal_weight=0 871.143 811.714 686.714
internal_count=295 263 246 220
is_linear=0
shrinkage=0.08


end of trees

feature_importances:
OPEN_TIME=299
VOLABILITY_BTC_23=164
OPEN_BTC=126
HIGH_LTCUSDT=88

parameters:
[boosting: goss]
[objective: regression]
[metric: l2]
[tree_learner: serial]
[device_type: cpu]
[data: ]
[valid: ]
[num_iterations: 100]
[learning_rate: 0.08]
[num_leaves: 15]
[num_threads: 0]
[deterministic: 0]
[force_col_wise: 0]
[force_row_wise: 0]
[histogram_pool_size: -1]
[max_depth: 4]
[min_data_in_leaf: 20]
[min_sum_hessian_in_leaf: 0.001]
[bagging_fraction: 1]
[pos_bagging_fraction: 1]
[neg_bagging_fraction: 1]
[bagging_freq: 0]
[bagging_seed: 3]
[feature_fraction: 1]
[feature_fraction_bynode: 1]
[feature_fraction_seed: 2]
[extra_trees: 0]
[extra_seed: 6]
[early_stopping_round: 64]
[first_metric_only: 0]
[max_delta_step: 0]
[lambda_l1: 0]
[lambda_l2: 0]
[linear_lambda: 0]
[min_gain_to_split: 0]
[drop_rate: 0.1]
[max_drop: 50]
[skip_drop: 0.5]
[xgboost_dart_mode: 0]
[uniform_drop: 0]
[drop_seed: 4]
[top_rate: 0.2]
[other_rate: 0.1]
[min_data_per_group: 100]
[max_cat_threshold: 32]
[cat_l2: 10]
[cat_smooth: 10]
[max_cat_to_onehot: 4]
[top_k: 20]
[monotone_constraints: ]
[monotone_constraints_method: basic]
[monotone_penalty: 0]
[feature_contri: ]
[forcedsplits_filename: ]
[refit_decay_rate: 0.9]
[cegb_tradeoff: 1]
[cegb_penalty_split: 0]
[cegb_penalty_feature_lazy: ]
[cegb_penalty_feature_coupled: ]
[path_smooth: 0]
[interaction_constraints: ]
[verbosity: 1]
[saved_feature_importance_type: 0]
[linear_tree: 0]
[max_bin: 255]
[max_bin_by_feature: ]
[min_data_in_bin: 3]
[bin_construct_sample_cnt: 200000]
[data_random_seed: 1]
[is_enable_sparse: 1]
[enable_bundle: 1]
[use_missing: 1]
[zero_as_missing: 0]
[feature_pre_filter: 1]
[pre_partition: 0]
[two_round: 0]
[header: 0]
[label_column: ]
[weight_column: ]
[group_column: ]
[ignore_column: ]
[categorical_feature: ]
[forcedbins_filename: ]
[precise_float_parser: 0]
[objective_seed: 5]
[num_class: 1]
[is_unbalance: 0]
[scale_pos_weight: 1]
[sigmoid: 1]
[boost_from_average: 1]
[reg_sqrt: 0]
[alpha: 0.9]
[fair_c: 1]
[poisson_max_delta_step: 0.7]
[tweedie_variance_power: 1.5]
[lambdarank_truncation_level: 30]
[lambdarank_norm: 1]
[label_gain: ]
[eval_at: ]
[multi_error_top_k: 1]
[auc_mu_weights: ]
[num_machines: 1]
[local_listen_port: 12400]
[time_out: 120]
[machine_list_filename: ]
[machines: ]
[gpu_platform_id: -1]
[gpu_device_id: -1]
[gpu_use_dp: 0]
[num_gpu: 1]

end of parameters

pandas_categorical:[]
